~o
<STREAMINFO> 1 39
<VECSIZE> 39<NULLD><MFCC_E_D_A_Z><DIAGC>
~s "silst"
<NUMMIXES> 13
<MIXTURE> 1 1.047277e-01
<MEAN> 39
 -5.672985e+00 -9.074967e-01 4.172204e+00 5.974517e+00 4.525238e+00 8.009464e+00 4.932346e+00 7.538055e+00 4.537448e+00 5.685084e+00 3.726079e+00 1.058940e+00 1.859734e-01 -2.494678e+00 -9.386773e-01 -9.379414e-01 1.196304e+00 1.210710e+00 2.137752e+00 2.404891e+00 2.841954e+00 2.047632e+00 1.761100e+00 7.651968e-01 2.414941e-01 -9.106106e-02 6.402498e-01 6.762801e-01 -8.540575e-02 -3.847260e-01 -4.473619e-01 -7.806987e-01 -6.681855e-01 -7.540725e-01 -5.683799e-01 -6.933258e-01 -2.960674e-01 -2.146906e-01 4.494331e-02
<VARIANCE> 39
 1.828703e+01 3.180643e+01 1.413097e+01 2.370319e+01 2.070059e+01 2.577471e+01 2.517160e+01 2.916023e+01 2.785876e+01 2.331557e+01 3.274116e+01 2.675466e+01 1.911728e-02 1.644508e+00 2.155618e+00 1.961733e+00 1.870409e+00 2.170043e+00 2.795382e+00 2.841590e+00 2.801191e+00 2.842681e+00 2.928633e+00 3.721968e+00 3.247160e+00 2.344933e-03 2.312983e-01 4.106404e-01 2.970030e-01 4.182198e-01 3.713632e-01 4.258218e-01 4.183588e-01 5.141542e-01 5.670042e-01 5.161712e-01 5.063396e-01 5.119624e-01 2.792507e-04
<GCONST> 9.244506e+01
<MIXTURE> 2 7.029434e-02
<MEAN> 39
 -6.342640e-01 -1.505471e+00 -6.684527e-01 -2.809062e+00 -5.458762e-01 2.476329e+00 3.801066e+00 3.376446e+00 3.284008e+00 3.174532e+00 4.451954e+00 3.707372e+00 3.749594e-01 -5.415230e-01 -5.072904e-02 -4.901174e-01 4.378414e-01 -1.085200e-01 -1.608194e-01 2.290467e-01 2.563199e-01 -1.974503e-01 3.909870e-01 2.120658e-01 -9.020514e-02 1.649926e-03 2.081090e-02 1.887676e-01 2.682336e-01 4.394102e-01 2.035380e-01 1.237199e-01 -2.296557e-01 -1.067341e-01 -1.277823e-01 -1.650722e-01 -4.384672e-01 -4.056768e-01 1.200434e-02
<VARIANCE> 39
 2.806182e+01 5.459029e+01 5.539417e+01 6.352571e+01 5.719336e+01 8.937717e+01 9.596101e+01 7.514910e+01 7.469321e+01 9.897729e+01 1.137805e+02 6.684272e+01 4.059924e-02 2.651068e+00 4.119999e+00 4.725241e+00 5.703722e+00 4.178332e+00 6.372648e+00 6.926454e+00 5.906695e+00 7.593353e+00 7.981826e+00 7.476286e+00 6.518795e+00 8.594587e-03 4.186603e-01 7.262926e-01 7.077948e-01 1.083971e+00 1.013625e+00 1.283474e+00 1.591348e+00 1.290807e+00 1.457935e+00 1.683121e+00 1.886862e+00 1.461649e+00 1.068977e-03
<GCONST> 1.297520e+02
<MIXTURE> 3 5.194590e-02
<MEAN> 39
 -3.991832e+00 -4.157008e+00 3.219518e-01 2.960687e+00 9.549838e-01 3.892248e+00 2.919958e+00 3.180918e+00 3.302000e+00 3.095609e+00 3.099160e+00 1.942481e+00 2.055795e-01 -2.836278e+00 -8.845915e-01 -2.244512e+00 -4.573477e-02 -4.020048e-01 4.132144e-01 5.631486e-01 1.276291e+00 9.597877e-01 8.429275e-01 9.482583e-01 4.556860e-01 -7.282819e-02 2.384314e-01 1.007831e+00 2.563806e-01 9.419272e-02 7.171135e-02 -1.667996e-01 -2.399091e-01 -3.230892e-01 -1.663311e-01 -2.469027e-01 -3.159705e-01 -8.786308e-02 4.252949e-02
<VARIANCE> 39
 1.540931e+01 3.526165e+01 2.099525e+01 2.112731e+01 2.128358e+01 2.344003e+01 2.965272e+01 2.943727e+01 2.539368e+01 2.627149e+01 2.257611e+01 1.952149e+01 2.269793e-02 2.484175e+00 3.040874e+00 3.290186e+00 2.509512e+00 2.371058e+00 3.321691e+00 4.467430e+00 4.430684e+00 3.495170e+00 3.000705e+00 2.978173e+00 2.795977e+00 2.703713e-03 2.965777e-01 4.828410e-01 3.268659e-01 4.022355e-01 4.012268e-01 3.780959e-01 4.631436e-01 4.915336e-01 4.644847e-01 5.206801e-01 4.405554e-01 4.575059e-01 2.864827e-04
<GCONST> 9.508165e+01
<MIXTURE> 4 2.970154e-02
<MEAN> 39
 3.318037e+00 6.288522e+00 6.638513e+00 1.095769e+00 -4.146314e+00 -2.056085e+00 -5.715621e+00 -3.884131e+00 -3.382833e-01 -1.297464e+00 4.396798e-01 1.240657e+00 5.239529e-01 1.885137e+00 2.464793e+00 -1.761650e-01 -1.788945e+00 -2.586899e+00 -2.042037e+00 -2.288801e+00 -1.777354e+00 -1.265675e+00 -1.128860e+00 -5.763214e-01 -9.167106e-01 1.729806e-01 -7.100293e-01 -5.029129e-01 -4.843399e-01 -2.331744e-01 5.429337e-01 5.215224e-01 8.007723e-01 8.087355e-01 5.341957e-01 3.400651e-01 8.938847e-02 -9.530771e-02 -2.521981e-02
<VARIANCE> 39
 1.747836e+01 4.730897e+01 3.289169e+01 2.847584e+01 4.426558e+01 3.802698e+01 3.037513e+01 4.696522e+01 4.363144e+01 3.055227e+01 2.557893e+01 3.433152e+01 2.380510e-02 2.250549e+00 5.178668e+00 3.452775e+00 3.649591e+00 5.580414e+00 4.046700e+00 4.523995e+00 4.667382e+00 5.062336e+00 3.122354e+00 4.772363e+00 4.206910e+00 3.081812e-03 2.008864e-01 3.374999e-01 3.117788e-01 4.433665e-01 4.877712e-01 6.037880e-01 5.125968e-01 1.006722e+00 7.069069e-01 4.969910e-01 4.672741e-01 5.532771e-01 3.225613e-04
<GCONST> 1.043063e+02
<MIXTURE> 5 5.069739e-02
<MEAN> 39
 -3.369881e+00 -3.905429e+00 3.467549e-01 1.876943e+00 6.731899e-01 2.960053e+00 2.707764e+00 3.159348e+00 3.543622e+00 2.911807e+00 2.372467e+00 1.621828e+00 1.739466e-01 -2.316089e+00 -9.178187e-01 -1.667204e+00 -1.728502e-01 -3.026021e-01 2.321655e-01 3.506590e-01 8.315914e-01 6.014792e-01 5.617667e-01 7.026465e-01 3.389416e-01 -7.839924e-02 2.889169e-01 8.542734e-01 2.976477e-01 2.373674e-01 1.598418e-01 -4.912964e-02 -2.148883e-01 -3.023798e-01 -1.916372e-01 -2.372470e-01 -2.337235e-01 -9.898490e-02 4.013861e-02
<VARIANCE> 39
 1.473626e+01 3.466198e+01 2.284586e+01 2.463260e+01 2.715678e+01 2.629558e+01 3.188817e+01 3.298643e+01 2.911372e+01 3.078028e+01 2.535924e+01 2.176233e+01 2.319824e-02 2.019250e+00 2.577477e+00 2.594091e+00 2.441717e+00 2.345803e+00 2.903473e+00 3.594955e+00 4.014684e+00 3.341306e+00 2.924279e+00 2.763591e+00 2.462004e+00 2.835275e-03 2.882346e-01 4.153910e-01 3.234289e-01 3.721576e-01 4.275548e-01 4.200550e-01 4.596358e-01 5.239419e-01 4.785423e-01 5.500824e-01 4.726476e-01 4.494997e-01 3.253579e-04
<GCONST> 9.524313e+01
<MIXTURE> 6 9.851193e-02
<MEAN> 39
 -2.062642e+00 -9.998040e-01 4.386052e+00 4.914646e+00 5.073832e+00 5.476334e+00 2.979223e+00 3.920540e+00 4.810293e+00 3.770336e+00 2.693434e+00 1.234422e+00 -1.181166e-02 1.579024e-02 3.234693e-01 2.124024e-01 -4.152131e-02 1.877606e-02 1.119481e-01 2.806062e-02 1.005449e-01 4.273338e-02 -5.592441e-02 2.907746e-03 2.534777e-02 -1.049201e-02 7.095634e-02 1.072684e-04 -4.671498e-02 -3.786569e-02 -8.404337e-02 -8.200750e-02 -8.868161e-02 -1.352134e-01 -1.895131e-01 -1.373363e-01 -2.999161e-02 4.792678e-02 1.380476e-02
<VARIANCE> 39
 1.178567e+01 3.842112e+01 2.244692e+01 2.717746e+01 3.060955e+01 2.770190e+01 2.684395e+01 3.576142e+01 2.228486e+01 2.204107e+01 2.704592e+01 1.769334e+01 1.273145e-02 4.163840e-01 9.547195e-01 9.124538e-01 1.264024e+00 1.326728e+00 1.665891e+00 1.684724e+00 2.305499e+00 2.077507e+00 2.063184e+00 1.907629e+00 1.611355e+00 3.906275e-04 1.383099e-01 2.282334e-01 1.831384e-01 2.299583e-01 3.348272e-01 3.760370e-01 3.650626e-01 4.610129e-01 4.469228e-01 4.185692e-01 3.856735e-01 3.056094e-01 2.931578e-04
<GCONST> 7.949407e+01
<MIXTURE> 7 3.441076e-02
<MEAN> 39
 6.592659e+00 5.687612e+00 8.057266e+00 2.905558e+00 -1.718041e-01 -1.693340e+00 -3.054925e+00 -5.555088e+00 -1.841765e+00 -3.305816e+00 -4.522472e+00 -1.390056e+00 6.014745e-01 2.417233e+00 1.953399e+00 3.407447e-01 -1.642983e+00 -1.440257e+00 -1.434797e+00 -1.587440e+00 -7.682396e-01 -7.525738e-01 -1.012528e-01 -4.327676e-01 -1.581065e-01 1.663525e-01 -1.076191e+00 -6.642162e-01 -8.198147e-01 -5.574840e-01 -7.047482e-03 3.193629e-01 3.129522e-01 6.633237e-01 6.787958e-01 5.271990e-01 6.945938e-01 4.870148e-01 -3.442356e-02
<VARIANCE> 39
 2.143047e+01 3.074441e+01 2.559950e+01 2.791688e+01 2.461517e+01 2.580359e+01 3.477967e+01 3.481916e+01 2.828290e+01 2.617564e+01 2.854983e+01 1.603804e+01 1.538810e-02 2.998635e+00 1.543867e+00 3.576374e+00 4.056327e+00 2.193601e+00 3.255290e+00 3.674050e+00 3.387137e+00 3.927171e+00 2.926616e+00 3.506203e+00 2.939550e+00 2.509052e-03 3.401551e-01 1.754203e-01 3.114236e-01 5.298631e-01 3.249002e-01 4.495663e-01 5.923811e-01 4.453039e-01 5.010481e-01 4.268952e-01 4.718287e-01 3.271381e-01 1.966180e-04
<GCONST> 9.451103e+01
<MIXTURE> 8 5.323977e-02
<MEAN> 39
 3.783719e+00 5.892309e+00 5.193645e+00 -9.000849e-01 -2.418133e+00 -9.403523e-01 -3.746932e+00 3.572946e+00 5.859652e+00 7.298533e+00 9.158559e+00 7.717825e+00 4.600019e-01 2.416617e+00 1.315732e+00 -1.861048e+00 -2.896959e+00 -2.788458e+00 -3.324284e+00 -2.351048e+00 -1.988066e+00 -1.444195e+00 -7.170391e-01 1.472601e-01 7.463769e-01 1.884715e-01 -5.883282e-01 -3.206128e-01 -2.560163e-01 1.238964e-01 6.537133e-01 5.227315e-01 6.288462e-01 2.161744e-01 -4.208601e-01 -6.969506e-01 -9.368135e-01 -8.665077e-01 -1.560523e-02
<VARIANCE> 39
 3.199218e+01 4.914286e+01 5.179427e+01 4.931949e+01 2.971907e+01 3.749852e+01 4.128449e+01 3.668577e+01 4.156707e+01 3.635250e+01 3.230933e+01 3.034782e+01 3.569081e-02 2.759475e+00 3.603959e+00 3.663493e+00 2.806316e+00 3.234174e+00 4.006754e+00 4.409820e+00 3.316892e+00 4.412991e+00 4.794727e+00 4.158874e+00 4.257048e+00 2.700253e-03 4.554998e-01 3.182895e-01 7.182993e-01 7.564787e-01 4.863602e-01 5.813860e-01 7.565735e-01 6.328927e-01 7.221876e-01 6.371286e-01 4.991466e-01 5.842392e-01 4.768488e-04
<GCONST> 1.077837e+02
<MIXTURE> 9 5.382896e-02
<MEAN> 39
 -3.075178e+00 -3.660186e+00 5.965311e-01 1.593617e+00 1.101935e+00 2.943220e+00 2.526626e+00 3.255865e+00 3.979038e+00 3.182231e+00 2.539841e+00 1.645174e+00 1.528146e-01 -2.030400e+00 -9.238425e-01 -1.349806e+00 -1.374129e-01 -2.009123e-01 2.714275e-01 4.566075e-01 8.074350e-01 5.446132e-01 5.609738e-01 5.919850e-01 3.031872e-01 -8.041172e-02 3.463985e-01 7.871823e-01 2.988873e-01 2.650322e-01 1.360536e-01 -5.677636e-02 -2.101616e-01 -3.010333e-01 -2.530951e-01 -2.932302e-01 -2.457937e-01 -1.324988e-01 3.928270e-02
<VARIANCE> 39
 1.352207e+01 3.522640e+01 2.193586e+01 2.546543e+01 2.737778e+01 2.693920e+01 3.111539e+01 3.355441e+01 2.968994e+01 3.136968e+01 2.596237e+01 2.220454e+01 2.298551e-02 1.657696e+00 2.376436e+00 2.189959e+00 2.432062e+00 2.322590e+00 2.802527e+00 3.226649e+00 3.833103e+00 3.262712e+00 2.850257e+00 2.638039e+00 2.389663e+00 2.965918e-03 2.594577e-01 3.651645e-01 3.028383e-01 3.380638e-01 3.934132e-01 4.041782e-01 4.405548e-01 5.234086e-01 4.825570e-01 5.553075e-01 4.699518e-01 4.311023e-01 3.450894e-04
<GCONST> 9.399955e+01
<MIXTURE> 10 1.228420e-01
<MEAN> 39
 -1.954198e+00 1.442800e+00 2.295348e+00 2.522482e+00 1.837087e+00 3.929446e+00 1.249826e+00 3.933134e+00 3.630821e+00 8.695688e-01 2.026058e+00 8.637945e-01 -8.693432e-02 7.295088e-02 1.447304e-01 4.546656e-02 -4.410648e-02 -9.359363e-02 3.167432e-02 7.216033e-02 8.017598e-02 -2.792727e-02 -5.141650e-04 -1.857043e-02 -6.468462e-03 -1.195973e-03 -1.904482e-02 -2.362171e-02 1.689387e-02 1.627158e-02 2.989279e-02 1.923462e-02 1.699229e-02 -4.974730e-03 -1.038225e-02 5.689416e-02 1.230872e-02 -1.368226e-02 1.588941e-03
<VARIANCE> 39
 5.702629e+00 2.978713e+01 1.308027e+01 1.457117e+01 1.304054e+01 2.163225e+01 1.901324e+01 2.129775e+01 1.308915e+01 2.040281e+01 1.921492e+01 1.658894e+01 4.249619e-03 1.476909e-01 5.047734e-01 4.811838e-01 6.371520e-01 1.013987e+00 1.038942e+00 1.137589e+00 1.141901e+00 1.110714e+00 1.266554e+00 1.128245e+00 1.125894e+00 3.754082e-05 3.410223e-02 8.539923e-02 9.471074e-02 1.238294e-01 1.963124e-01 2.217277e-01 2.288104e-01 2.215302e-01 2.342133e-01 2.503529e-01 2.370008e-01 2.372558e-01 1.310874e-05
<GCONST> 5.316698e+01
<MIXTURE> 11 1.217116e-01
<MEAN> 39
 -1.484242e+00 -3.204471e+00 6.861554e-01 1.780118e+00 3.304261e+00 2.725783e+00 1.343961e+00 9.830056e-01 1.873004e+00 1.259038e-01 7.118981e-01 3.409273e-01 6.643146e-02 -3.046867e-01 1.051397e-01 1.754071e-01 2.298567e-01 -5.125630e-02 4.265300e-02 -6.352449e-02 -4.121618e-02 -5.323368e-02 -1.139524e-01 -1.951628e-01 -2.103859e-01 -2.094045e-02 2.265861e-01 2.777026e-01 1.895137e-01 1.890084e-01 5.425980e-02 5.042231e-02 2.249233e-02 9.534637e-02 1.716544e-01 9.986328e-02 9.198392e-03 7.560109e-02 2.443115e-02
<VARIANCE> 39
 1.140233e+01 4.278791e+01 2.424012e+01 2.780193e+01 2.698443e+01 2.990364e+01 2.832327e+01 3.956604e+01 3.162976e+01 3.234379e+01 3.297359e+01 2.300478e+01 1.811472e-02 6.031382e-01 9.412555e-01 1.109430e+00 1.608804e+00 1.959195e+00 2.222599e+00 1.991308e+00 2.253010e+00 2.384527e+00 2.480052e+00 2.045303e+00 1.880925e+00 1.978084e-03 1.822064e-01 2.355131e-01 2.588064e-01 2.701624e-01 3.671913e-01 4.490934e-01 3.991929e-01 5.328834e-01 5.204014e-01 4.690527e-01 4.089607e-01 3.834545e-01 4.521119e-04
<GCONST> 8.740699e+01
<MIXTURE> 12 1.439169e-01
<MEAN> 39
 -3.534666e+00 -3.164011e+00 3.496715e+00 5.550975e+00 6.162226e+00 6.102577e+00 4.775307e+00 4.480515e+00 4.352218e+00 3.870156e+00 3.222703e+00 1.762457e+00 1.059110e-01 5.431092e-01 7.388493e-01 2.651538e-02 -1.595557e-01 -6.109213e-01 -6.485252e-01 -5.762885e-01 -6.428656e-01 -3.663226e-01 1.936100e-01 -1.054998e-01 -4.102728e-02 6.756920e-02 5.801544e-01 2.325249e-01 -2.964554e-01 -4.990957e-01 -5.618200e-01 -4.649869e-01 -3.791280e-01 -3.511126e-01 -4.775580e-01 -2.191449e-01 -1.702015e-01 1.818716e-03 4.325617e-02
<VARIANCE> 39
 1.821908e+01 5.452193e+01 4.401367e+01 3.286495e+01 3.243692e+01 4.637998e+01 3.858537e+01 4.536654e+01 4.225629e+01 3.135900e+01 3.834259e+01 2.832464e+01 3.292267e-02 2.550495e+00 4.796443e+00 3.285923e+00 3.848786e+00 3.669250e+00 3.931808e+00 4.241543e+00 4.492612e+00 4.009481e+00 3.524575e+00 3.714856e+00 2.784031e+00 8.266316e-03 4.268031e-01 8.199953e-01 5.735010e-01 5.598927e-01 5.956967e-01 7.847691e-01 7.923690e-01 8.053449e-01 7.763492e-01 6.584966e-01 7.558627e-01 5.724695e-01 9.736174e-04
<GCONST> 1.104135e+02
<MIXTURE> 13 6.416444e-02
<MEAN> 39
 -9.846546e-01 8.618904e-01 5.224011e+00 5.291086e+00 4.092508e+00 2.732758e+00 4.869486e-01 -1.254681e+00 8.679566e-01 -8.924838e-01 -1.214314e+00 1.235840e+00 3.032943e-01 2.914311e+00 2.517089e+00 3.632725e-01 -8.748313e-01 -1.210096e+00 -1.644129e+00 -1.943271e+00 -1.553886e+00 -1.621635e+00 -1.088031e+00 -9.371979e-01 -8.705389e-01 2.063926e-01 3.746795e-03 -1.113417e-01 -5.588455e-01 -7.552449e-01 -3.996800e-01 -1.947851e-01 -1.207929e-01 2.459470e-01 1.691242e-01 2.546081e-01 3.087453e-01 1.054880e-01 3.684388e-03
<VARIANCE> 39
 1.994976e+01 3.257156e+01 2.965009e+01 2.036010e+01 2.894875e+01 3.004021e+01 3.042086e+01 3.086744e+01 2.845749e+01 3.267800e+01 2.931663e+01 2.735524e+01 3.094529e-02 1.982604e+00 2.020797e+00 3.885061e+00 3.153223e+00 2.630996e+00 2.883500e+00 3.964569e+00 3.412453e+00 3.161862e+00 2.688159e+00 3.157915e+00 3.007674e+00 1.441152e-03 2.754310e-01 2.026334e-01 3.566900e-01 3.565540e-01 3.233047e-01 4.110845e-01 4.291371e-01 4.128016e-01 4.406301e-01 5.252653e-01 4.358158e-01 4.340516e-01 3.236590e-04
<GCONST> 9.472871e+01
~h "#i"
<BEGINHMM>
<NUMSTATES> 15
<STATE> 2
<NUMMIXES> 12
<MIXTURE> 1 1.365240e-02
<MEAN> 39
 -5.956996e+00 1.087108e+01 -4.527018e+00 -4.351808e+00 -5.092721e+00 -3.589999e+00 2.672788e+00 6.565190e+00 1.619486e+01 1.679469e+01 9.647583e+00 2.478027e+00 9.285213e-01 -5.980980e-01 -1.379894e-01 -2.051604e-01 -3.535565e-01 -5.851213e-01 1.242020e-02 -1.236915e-01 5.255042e-01 2.326653e+00 2.173829e+00 3.162937e-01 -3.592218e-02 1.620870e-02 4.285159e-01 -9.241948e-02 -5.319290e-02 -2.251547e-02 -7.295328e-02 2.153760e-01 4.497448e-01 1.263875e-01 -8.213364e-01 -1.226093e+00 -9.860436e-01 -6.765313e-01 -1.137562e-02
<VARIANCE> 39
 1.253407e+01 2.841020e+01 9.820647e+00 2.543722e+01 9.572196e+00 7.655504e+00 1.824852e+01 1.988672e+01 5.061824e+01 3.034054e+01 2.637491e+01 1.212793e+02 8.178990e-04 5.173405e-01 9.776177e-01 1.334050e+00 1.786096e+00 1.069010e+00 4.607946e-01 1.717387e+00 6.841645e-01 4.037601e+00 2.923558e+00 3.207108e+00 9.178916e-01 1.232236e-04 1.242712e-01 1.962281e-01 2.310688e-01 3.627802e-01 2.191761e-01 2.259121e-01 2.496075e-01 2.543387e-01 5.813354e-01 4.036538e-01 6.320344e-01 4.734668e-01 8.089218e-05
<GCONST> 7.171272e+01
<MIXTURE> 2 3.130665e-02
<MEAN> 39
 -3.356856e+00 1.097766e+01 -5.642706e+00 -1.711807e+00 -6.891484e+00 -5.912527e+00 5.861645e-01 -1.306827e+00 1.465094e+00 9.655656e-01 5.271696e+00 1.169160e+01 8.254550e-01 -9.209458e-01 -2.806033e-01 -3.099397e-01 6.173499e-02 -2.322348e-01 -8.421945e-02 -1.008938e+00 -5.017145e-01 6.220057e-01 1.910146e+00 3.267942e+00 3.858303e+00 3.655545e-02 5.048655e-01 2.264890e-02 2.501794e-01 7.545083e-02 6.644738e-02 1.479058e-01 2.088787e-01 3.505337e-01 2.962726e-01 2.114114e-01 -4.762807e-01 -9.437354e-01 -1.185456e-02
<VARIANCE> 39
 2.239884e+01 1.448668e+01 1.197681e+01 1.025179e+01 2.142890e+01 1.100484e+01 3.081337e+01 1.484646e+01 3.569281e+01 4.280603e+01 3.894545e+01 2.500736e+01 3.273475e-03 6.454993e-01 4.896016e-01 8.707604e-01 6.630238e-01 1.154584e+00 1.409741e+00 1.719316e+00 1.085683e+00 2.105434e+00 4.287515e+00 2.669793e+00 2.638225e+00 1.510665e-04 9.090245e-02 8.427419e-02 1.421542e-01 1.431008e-01 1.612213e-01 1.535078e-01 3.240323e-01 2.397963e-01 2.374724e-01 3.183933e-01 5.009058e-01 4.326802e-01 7.660695e-05
<GCONST> 6.850568e+01
<MIXTURE> 3 2.019363e-02
<MEAN> 39
 2.410611e+00 9.309367e+00 -1.030699e+01 -3.414201e+00 -1.342448e+00 -2.007593e+00 -3.286532e-01 -1.151950e+00 8.033096e+00 9.265539e+00 1.028158e+01 7.801186e+00 8.655912e-01 -1.205071e+00 -3.391570e-01 -3.671854e-01 -1.094231e+00 -1.159425e+00 -5.398855e-01 -9.626991e-01 -2.337032e+00 -6.520391e-01 1.083027e-01 6.356481e-01 5.245299e-01 4.373115e-02 -2.876354e-01 -3.164121e-01 4.350215e-01 3.153276e-01 -1.617673e-01 -3.667750e-01 -1.786191e-01 5.433120e-02 -4.471487e-01 -3.625521e-01 5.356194e-02 1.891752e-01 -1.312967e-02
<VARIANCE> 39
 1.107903e+01 3.571397e+01 5.682702e+00 1.560165e+01 3.837151e+01 1.875605e+01 2.023624e+01 5.278868e+01 4.720528e+01 2.423274e+01 6.487448e+01 1.065326e+02 5.141320e-03 3.265564e-01 1.227286e+00 9.270114e-01 9.094185e-01 1.980891e+00 2.904465e+00 3.100257e+00 5.210470e+00 6.604540e+00 2.396388e+00 2.062303e+00 4.474735e+00 9.790678e-04 9.786106e-02 1.607140e-01 1.746491e-01 3.151803e-01 2.683038e-01 4.787094e-01 3.054331e-01 7.138296e-01 4.219293e-01 2.246023e-01 4.451181e-01 8.315508e-01 1.765571e-04
<GCONST> 8.519037e+01
<MIXTURE> 4 7.085679e-02
<MEAN> 39
 5.402427e-01 1.476367e+01 5.953291e-02 1.563476e+00 -6.194208e+00 -2.066779e+00 -1.241374e+01 1.051139e+00 -1.271089e+00 -2.537876e+00 4.840465e+00 -4.823109e+00 7.621161e-01 -5.477515e-01 1.455501e+00 -1.776656e-01 2.092292e-01 -4.437365e-01 4.615918e-01 -1.074477e+00 9.040859e-01 -9.153453e-01 -8.058615e-01 3.177795e-01 -3.919631e-01 1.764594e-02 4.478445e-02 -5.244533e-01 2.656764e-01 -4.651243e-01 5.052868e-02 -1.580770e-01 4.034372e-01 3.240722e-02 6.890025e-02 1.187603e-01 -3.064137e-01 2.331310e-01 9.644410e-04
<VARIANCE> 39
 6.248123e+00 3.766276e+01 1.655886e+01 2.201239e+01 1.746376e+01 2.075893e+01 2.598955e+01 1.676762e+01 2.243712e+01 1.835394e+01 1.554438e+01 1.126632e+01 5.367406e-03 8.144189e-01 1.248067e+00 1.584769e+00 2.138877e+00 1.425963e+00 1.478290e+00 1.753923e+00 1.946749e+00 1.865517e+00 1.608133e+00 1.146215e+00 9.900293e-01 3.612483e-04 1.219797e-01 3.033832e-01 3.074843e-01 2.668233e-01 2.463683e-01 2.277517e-01 2.735269e-01 4.518392e-01 4.025281e-01 4.128436e-01 2.429516e-01 2.687563e-01 4.203996e-05
<GCONST> 7.210675e+01
<MIXTURE> 5 1.962453e-01
<MEAN> 39
 1.336625e+00 1.085968e+01 -3.540099e+00 -3.567098e+00 -6.191477e+00 -5.342499e+00 -3.510455e+00 -3.436860e-01 -4.036582e+00 -2.542654e+00 -4.342415e+00 -2.464648e+00 7.074912e-01 6.118769e-02 9.434203e-01 3.981087e-02 5.193710e-01 -5.601152e-01 -6.244699e-02 -6.555453e-01 -3.404785e-01 -5.755814e-01 9.777957e-04 -3.846327e-01 4.455308e-01 1.239591e-02 -8.307110e-02 -3.172275e-02 1.550740e-01 -6.636646e-02 2.558291e-01 3.505913e-02 4.086165e-02 7.176942e-02 2.826088e-01 1.597948e-01 4.001847e-01 2.763604e-01 6.992905e-03
<VARIANCE> 39
 1.369555e+01 2.257795e+01 2.012527e+01 2.728577e+01 2.226228e+01 2.087487e+01 4.082088e+01 3.477198e+01 3.148283e+01 2.831303e+01 5.613195e+01 5.098652e+01 1.613301e-02 6.098378e-01 1.366710e+00 1.176844e+00 1.471847e+00 1.543870e+00 2.178002e+00 2.651758e+00 2.401371e+00 2.314504e+00 2.262921e+00 3.662115e+00 3.998278e+00 7.791678e-04 9.303829e-02 1.718388e-01 2.136768e-01 3.309120e-01 2.549869e-01 4.009765e-01 4.845787e-01 3.953468e-01 4.791768e-01 5.407985e-01 5.094811e-01 5.481916e-01 7.747576e-05
<GCONST> 8.554839e+01
<MIXTURE> 6 9.365879e-02
<MEAN> 39
 1.778777e+00 1.329673e+01 -1.264991e+00 -3.142188e-01 -3.862429e+00 -4.067802e+00 3.361195e+00 4.454830e+00 3.060143e+00 5.854236e+00 1.532285e-01 5.036789e+00 6.353414e-01 3.074871e-01 1.458165e+00 -2.642087e-01 2.845453e-01 -9.990810e-01 -1.396336e-01 -7.771125e-01 -5.263501e-01 -1.110636e+00 -1.453302e-01 -1.255119e+00 5.860724e-01 3.003775e-02 -1.654020e-01 -5.722189e-01 -1.640849e-02 -4.456705e-01 6.487273e-02 -7.169391e-02 -2.820827e-01 -3.589520e-01 -2.770386e-01 -5.502287e-01 -8.590375e-02 -3.172447e-01 9.903106e-03
<VARIANCE> 39
 8.486650e+00 2.295160e+01 1.820614e+01 2.591282e+01 1.419619e+01 2.206224e+01 2.043916e+01 2.605066e+01 2.300973e+01 1.991756e+01 2.801995e+01 2.710634e+01 1.156176e-02 7.869326e-01 3.163333e+00 1.160673e+00 1.732560e+00 1.568849e+00 3.162963e+00 2.309944e+00 2.368152e+00 2.553963e+00 2.880126e+00 3.942414e+00 2.702791e+00 2.695742e-03 1.322570e-01 3.562171e-01 2.162421e-01 2.725787e-01 3.305438e-01 4.456106e-01 4.236016e-01 4.215627e-01 4.146832e-01 3.210094e-01 5.591338e-01 5.300287e-01 1.578175e-04
<GCONST> 8.527606e+01
<MIXTURE> 7 1.053502e-01
<MEAN> 39
 3.290930e+00 1.342658e+01 -1.867447e+00 -7.996054e-01 -2.641755e+00 -2.846064e+00 1.986211e+00 2.154421e+00 9.677267e-01 3.684516e+00 4.136133e-01 5.377055e+00 6.853170e-01 6.739058e-02 5.842767e-01 -2.666597e-01 -7.037646e-02 -6.741844e-01 -4.066107e-01 -1.970627e-01 -1.867733e-01 -9.568323e-02 -3.420350e-01 -3.101233e-01 6.251160e-02 2.033423e-02 -2.642172e-01 -2.449147e-01 -2.593713e-01 -1.803662e-01 -2.527643e-01 -3.581803e-01 -3.624870e-01 -3.121856e-01 -3.908799e-01 -5.377021e-01 -4.338480e-01 -4.729121e-01 9.434247e-03
<VARIANCE> 39
 9.713320e+00 2.518301e+01 2.328035e+01 1.480364e+01 1.608429e+01 1.302328e+01 2.843480e+01 2.295049e+01 2.534113e+01 3.193144e+01 2.719442e+01 3.897229e+01 1.257883e-02 4.031627e-01 6.733180e-01 5.618600e-01 7.870709e-01 7.860756e-01 8.413948e-01 1.456501e+00 1.297882e+00 1.385705e+00 1.713226e+00 2.325737e+00 1.777246e+00 4.937332e-04 7.699279e-02 1.544808e-01 1.185575e-01 1.808535e-01 1.886214e-01 1.855066e-01 2.528524e-01 2.059294e-01 2.557074e-01 2.635638e-01 3.110877e-01 3.158619e-01 6.950495e-05
<GCONST> 6.773127e+01
<MIXTURE> 8 1.024612e-01
<MEAN> 39
 -1.968112e+00 1.074445e+01 -1.796134e+00 -6.336366e+00 -2.826278e+00 -1.094904e+01 1.339511e-01 -1.004305e+00 2.919742e-01 -1.240179e+00 -4.725616e-01 -1.106996e+00 8.172460e-01 -3.609639e-01 2.099309e+00 -1.323849e+00 2.364346e+00 -1.258896e+00 -4.163107e-01 -9.215546e-01 -1.351013e+00 -1.350936e+00 -1.315349e+00 6.037883e-02 4.877398e-01 -6.056286e-03 3.334994e-01 -8.404974e-01 3.554367e-01 2.595710e-01 -4.153720e-01 1.139846e+00 -7.490135e-02 1.438106e-01 -2.114865e-01 4.103294e-02 -2.398840e-01 -3.491544e-02 2.552342e-03
<VARIANCE> 39
 8.912756e+00 2.736065e+01 1.766911e+01 3.094762e+01 2.377803e+01 2.748451e+01 4.191508e+01 3.171136e+01 3.649804e+01 3.974301e+01 3.464540e+01 3.117412e+01 7.746418e-03 6.714942e-01 1.550271e+00 1.129059e+00 1.590744e+00 2.364129e+00 4.629598e+00 2.602502e+00 2.469071e+00 4.487514e+00 4.759901e+00 3.372397e+00 3.399267e+00 2.986357e-04 8.641648e-02 2.292377e-01 2.247222e-01 4.973591e-01 6.135265e-01 3.949039e-01 4.326864e-01 5.118876e-01 6.324158e-01 7.364532e-01 4.918117e-01 6.100545e-01 2.597702e-05
<GCONST> 8.725570e+01
<MIXTURE> 9 3.293107e-02
<MEAN> 39
 -1.990682e+00 1.034619e+01 -5.136240e+00 -3.868761e+00 -6.806472e+00 -4.892200e+00 1.548698e+00 -1.919783e-01 2.877370e+00 1.259244e+00 2.493496e+00 6.474216e+00 8.084986e-01 -1.899491e+00 -2.920881e-01 -4.981974e-01 -1.388526e-03 -4.045996e-01 -5.318006e-01 -1.601607e+00 -1.774483e+00 -9.114084e-03 1.700365e+00 3.289974e+00 3.577083e+00 5.731590e-02 1.876281e-01 -3.440072e-01 7.811534e-01 6.150188e-01 8.143209e-01 8.774845e-01 3.068084e-01 4.278183e-01 1.277514e-01 2.310009e-01 -1.338359e-01 -5.144855e-01 -3.794657e-02
<VARIANCE> 39
 1.111443e+01 3.316759e+01 2.960346e+01 1.781747e+01 2.063337e+01 1.165283e+01 1.822946e+01 1.166724e+01 4.263005e+01 6.737630e+01 5.082357e+01 6.277650e+01 8.160708e-03 5.360553e-01 4.360312e-01 1.109259e+00 8.318725e-01 9.225478e-01 1.464285e+00 9.559600e-01 1.311575e+00 3.577432e+00 5.744236e+00 3.454122e+00 3.197603e+00 6.537925e-04 1.551276e-01 4.233491e-01 4.132495e-01 2.026489e-01 2.970299e-01 2.482968e-01 4.112255e-01 2.917413e-01 3.614784e-01 1.154317e+00 8.639073e-01 7.043681e-01 3.994236e-04
<GCONST> 8.387795e+01
<MIXTURE> 10 8.973628e-02
<MEAN> 39
 -1.740638e+00 1.185752e+01 2.092077e+00 -6.361043e+00 -2.756681e+00 -5.677305e+00 -8.262279e+00 -9.458098e-02 2.141475e+00 -3.599685e+00 3.662744e+00 1.383248e+00 8.598871e-01 -2.461378e-01 1.389991e+00 -5.564591e-01 1.053092e+00 -4.361014e-01 -5.416899e-01 -5.568975e-01 -3.661630e-01 -1.524056e-01 -1.041177e+00 1.037584e+00 -1.035636e+00 7.143272e-04 1.228115e-01 -3.370827e-01 7.600840e-02 1.358800e-02 -3.339947e-01 3.508424e-01 1.587689e-01 8.864365e-02 -9.836140e-02 2.484534e-01 -2.169482e-01 -2.284521e-01 7.658208e-04
<VARIANCE> 39
 9.909444e+00 2.372065e+01 1.180977e+01 2.064498e+01 1.502547e+01 1.269062e+01 1.958325e+01 1.982084e+01 2.258022e+01 2.049199e+01 2.364259e+01 2.186619e+01 4.694146e-03 1.895243e-01 6.149603e-01 7.205750e-01 9.333106e-01 9.009023e-01 1.158524e+00 1.275744e+00 1.078742e+00 1.059231e+00 1.585712e+00 1.365182e+00 1.522452e+00 1.153794e-04 3.464435e-02 1.117204e-01 9.326047e-02 1.505307e-01 1.656695e-01 2.071641e-01 2.088457e-01 2.022091e-01 1.337711e-01 2.038942e-01 1.806154e-01 2.635337e-01 6.417755e-06
<GCONST> 5.590785e+01
<MIXTURE> 11 6.578868e-02
<MEAN> 39
 -1.185382e+00 1.302060e+01 2.148758e+00 -3.474991e+00 -4.512795e+00 -5.957867e+00 -7.506324e+00 -4.039608e-01 1.708614e+00 -4.398733e+00 7.461497e+00 -1.780594e+00 7.753801e-01 -3.454408e-02 1.621959e+00 -5.864530e-01 1.594378e+00 -7.733766e-01 2.371449e-01 -1.215566e+00 -3.730283e-01 -1.231392e+00 -8.402040e-01 6.677918e-01 -1.541902e+00 5.939651e-03 1.414586e-01 -5.293000e-01 3.215897e-02 -2.659643e-01 -1.898848e-01 5.149802e-01 2.876531e-01 2.438650e-01 -2.074484e-01 5.246293e-01 -8.544239e-01 1.011968e-01 4.218184e-03
<VARIANCE> 39
 8.557713e+00 2.161023e+01 1.150117e+01 2.302722e+01 2.070817e+01 2.496810e+01 1.264326e+01 2.314057e+01 2.331670e+01 5.290109e+01 1.788566e+01 2.540633e+01 5.871148e-03 3.389817e-01 6.961012e-01 9.165878e-01 1.070712e+00 1.241181e+00 1.568384e+00 1.528082e+00 1.740865e+00 1.852111e+00 2.178885e+00 1.668027e+00 1.358005e+00 2.769114e-04 5.874136e-02 1.681725e-01 1.278903e-01 2.480356e-01 2.966726e-01 2.675633e-01 2.397067e-01 2.580130e-01 2.822008e-01 3.874426e-01 3.088320e-01 3.630441e-01 2.573696e-05
<GCONST> 6.835088e+01
<MIXTURE> 12 1.778156e-01
<MEAN> 39
 9.488389e-01 1.162388e+01 -2.641449e+00 -3.105595e+00 -6.099336e+00 -4.559552e+00 -2.035109e+00 1.860121e+00 -1.156572e+00 5.762864e-01 -8.177444e-01 1.602864e+00 7.767150e-01 -9.088079e-01 8.421370e-01 -6.896414e-01 -6.901134e-01 -7.761089e-01 -8.723374e-01 -1.103680e+00 -1.023422e+00 -1.426561e+00 -1.393280e+00 -9.496287e-01 -5.457838e-01 7.745437e-02 -3.766037e-01 -1.042710e+00 4.066203e-01 6.267038e-01 7.362016e-01 7.416114e-01 2.982935e-01 1.453421e-01 3.428809e-01 1.754329e-01 2.619479e-01 5.926040e-02 -4.174875e-02
<VARIANCE> 39
 1.344447e+01 5.188481e+01 1.955442e+01 1.887175e+01 2.109436e+01 3.068270e+01 4.479110e+01 2.989957e+01 2.647653e+01 3.145430e+01 3.231020e+01 5.208928e+01 1.220373e-02 9.476375e-01 2.144462e+00 1.113991e+00 1.788010e+00 1.778636e+00 1.926468e+00 1.941692e+00 3.037265e+00 2.369908e+00 1.930579e+00 4.788667e+00 3.891795e+00 1.356606e-03 1.748822e-01 3.818856e-01 3.393460e-01 3.102381e-01 3.369304e-01 4.399930e-01 5.338125e-01 4.216432e-01 3.877961e-01 3.976709e-01 5.067489e-01 7.136989e-01 3.296440e-04
<GCONST> 9.054103e+01
<STATE> 3
<NUMMIXES> 12
<MIXTURE> 1 4.654978e-02
<MEAN> 39
 -4.660365e+00 7.572253e+00 -9.429578e+00 -5.949457e+00 -9.330193e+00 -8.254960e+00 -1.709377e+00 -2.231827e+00 5.337508e+00 8.689137e+00 1.231979e+01 1.698628e+01 9.161960e-01 -1.346686e-01 -4.535836e-02 -4.881413e-02 1.858228e-01 -3.522745e-01 -3.580925e-01 -5.783733e-01 -7.108495e-02 3.384963e-01 4.530013e-01 1.017903e+00 5.815157e-01 1.303443e-02 3.812004e-01 2.735166e-01 3.224343e-01 3.227260e-01 4.169064e-01 3.228404e-01 3.405479e-01 2.648994e-01 -3.102535e-02 -3.040923e-01 -5.266131e-01 -5.878295e-01 -5.002628e-03
<VARIANCE> 39
 2.015308e+01 3.055648e+01 1.947942e+01 9.300148e+00 2.502376e+01 1.877089e+01 2.576114e+01 3.720420e+01 5.280845e+01 5.663950e+01 4.698156e+01 7.205918e+01 4.453927e-03 4.213965e-01 7.025083e-01 8.347608e-01 1.106362e+00 1.321984e+00 1.015842e+00 1.453585e+00 7.762300e-01 9.421820e-01 1.614603e+00 2.342210e+00 1.918313e+00 1.032156e-04 6.011520e-02 9.076425e-02 1.130416e-01 1.504706e-01 2.321381e-01 1.437291e-01 2.360041e-01 2.188012e-01 2.838880e-01 3.993706e-01 2.906007e-01 3.700106e-01 1.554292e-05
<GCONST> 6.776807e+01
<MIXTURE> 2 4.191389e-02
<MEAN> 39
 -2.944320e+00 1.190219e+01 -6.397138e+00 -4.395181e+00 -1.093181e+01 -1.090684e+01 -7.177348e+00 -5.449549e+00 -7.395222e+00 -5.559701e+00 -7.998047e+00 -1.239653e+00 8.647597e-01 -4.969695e-02 -1.971703e-01 -1.809607e-01 7.751726e-02 -2.973335e-01 4.829968e-02 -3.762709e-01 -4.475544e-01 -4.532698e-01 -4.665121e-01 -4.366612e-01 -1.484223e-01 1.155389e-02 3.125419e-01 2.206843e-01 4.449591e-01 3.335004e-01 6.393967e-01 5.671749e-01 6.559082e-01 6.546679e-01 6.301279e-01 6.301748e-01 5.885237e-01 4.641854e-01 -3.148323e-03
<VARIANCE> 39
 1.075252e+01 2.356878e+01 1.533515e+01 1.702291e+01 8.762235e+00 1.381902e+01 2.753840e+01 2.080462e+01 2.971514e+01 1.966836e+01 2.932406e+01 4.076712e+01 6.326182e-03 2.944165e-01 3.975995e-01 5.551776e-01 1.000015e+00 8.244345e-01 8.612074e-01 1.245643e+00 1.114921e+00 9.298825e-01 1.213742e+00 1.772395e+00 1.551346e+00 1.149065e-04 5.146519e-02 1.165959e-01 1.046531e-01 1.812842e-01 1.103940e-01 1.686825e-01 1.763941e-01 2.103850e-01 1.709790e-01 2.309334e-01 2.585874e-01 2.972204e-01 3.271010e-05
<GCONST> 5.914819e+01
<MIXTURE> 3 4.191389e-02
<MEAN> 39
 -2.944320e+00 1.190219e+01 -6.397138e+00 -4.395181e+00 -1.093181e+01 -1.090684e+01 -7.177348e+00 -5.449549e+00 -7.395222e+00 -5.559701e+00 -7.998047e+00 -1.239653e+00 8.647597e-01 -4.969695e-02 -1.971703e-01 -1.809607e-01 7.751726e-02 -2.973335e-01 4.829968e-02 -3.762709e-01 -4.475544e-01 -4.532698e-01 -4.665121e-01 -4.366612e-01 -1.484223e-01 1.155389e-02 3.125419e-01 2.206843e-01 4.449591e-01 3.335004e-01 6.393967e-01 5.671749e-01 6.559082e-01 6.546679e-01 6.301279e-01 6.301748e-01 5.885237e-01 4.641854e-01 -3.148323e-03
<VARIANCE> 39
 1.075252e+01 2.356878e+01 1.533515e+01 1.702291e+01 8.762235e+00 1.381902e+01 2.753840e+01 2.080462e+01 2.971514e+01 1.966836e+01 2.932406e+01 4.076712e+01 6.326182e-03 2.944165e-01 3.975995e-01 5.551776e-01 1.000015e+00 8.244345e-01 8.612074e-01 1.245643e+00 1.114921e+00 9.298825e-01 1.213742e+00 1.772395e+00 1.551346e+00 1.149065e-04 5.146519e-02 1.165959e-01 1.046531e-01 1.812842e-01 1.103940e-01 1.686825e-01 1.763941e-01 2.103850e-01 1.709790e-01 2.309334e-01 2.585874e-01 2.972204e-01 3.271010e-05
<GCONST> 5.914819e+01
<MIXTURE> 4 7.892837e-02
<MEAN> 39
 -1.868094e+00 1.598974e+01 1.236472e+00 -1.910544e+00 -8.093844e+00 -1.435463e+00 -1.202872e+01 2.022022e+00 -1.310076e+00 -5.860103e+00 5.003539e+00 -4.851756e+00 8.243436e-01 -4.970290e-01 2.624730e-01 1.086179e-02 -7.598189e-02 -9.150516e-02 1.237547e-01 4.981124e-02 -2.987437e-02 1.215989e-01 -2.946436e-01 3.058569e-01 -1.323622e-01 2.233629e-02 1.846258e-01 -2.363601e-01 9.179371e-03 1.035434e-02 1.455364e-01 -1.299722e-01 1.230067e-01 -1.476840e-01 5.237304e-02 2.197499e-01 -1.443696e-01 1.252212e-01 -5.609359e-03
<VARIANCE> 39
 1.071997e+01 2.816897e+01 1.117523e+01 8.289996e+00 1.423830e+01 1.335688e+01 1.661060e+01 1.870365e+01 1.975937e+01 1.762588e+01 1.162103e+01 8.086596e+00 5.575224e-03 7.084572e-01 2.929212e-01 4.008239e-01 6.049473e-01 4.134540e-01 6.508941e-01 6.327814e-01 1.281029e+00 1.229533e+00 6.487815e-01 6.368123e-01 7.340794e-01 1.680212e-04 1.304775e-01 8.276816e-02 7.789191e-02 1.304196e-01 8.425998e-02 9.505645e-02 1.154636e-01 1.991111e-01 1.256871e-01 9.198038e-02 1.170038e-01 1.008114e-01 2.112470e-05
<GCONST> 4.653703e+01
<MIXTURE> 5 1.421630e-01
<MEAN> 39
 -3.666800e-01 1.244731e+01 -3.080734e+00 -7.055132e-01 -5.869758e+00 -3.251154e+00 -1.317636e+00 -2.870688e+00 -3.280130e+00 -3.125988e+00 -2.746552e+00 3.946982e+00 8.341929e-01 1.002668e-01 6.307363e-01 1.575249e-01 6.131373e-01 6.331271e-03 1.404618e-01 -2.888805e-01 8.483118e-02 -1.673109e-02 -7.478402e-02 2.194361e-01 8.733441e-01 1.692628e-02 5.131721e-02 -1.296253e-01 -4.386705e-02 -1.936268e-01 1.118959e-01 -2.758466e-01 -1.374827e-02 1.970043e-01 3.461392e-01 2.389805e-01 7.021009e-02 -2.294423e-01 -1.823614e-03
<VARIANCE> 39
 1.186399e+01 3.412918e+01 1.782459e+01 1.601208e+01 2.279473e+01 3.077548e+01 2.615641e+01 1.799695e+01 1.783665e+01 2.363117e+01 3.986230e+01 3.004659e+01 7.646271e-03 3.177847e-01 5.825639e-01 8.191041e-01 1.035307e+00 1.061867e+00 1.387192e+00 1.391545e+00 1.311674e+00 2.089704e+00 1.928880e+00 2.179490e+00 1.719759e+00 1.921389e-04 7.027638e-02 1.020597e-01 1.229770e-01 2.105557e-01 2.757427e-01 2.395033e-01 2.086348e-01 2.987688e-01 3.770346e-01 2.614589e-01 3.478731e-01 3.454071e-01 3.265213e-05
<GCONST> 6.874678e+01
<MIXTURE> 6 1.411972e-01
<MEAN> 39
 -9.843690e-02 1.503823e+01 -8.743799e-01 -1.092839e+00 -5.504355e+00 -7.668397e+00 -1.033656e+01 3.321759e+00 -4.836268e+00 2.019245e+00 -8.266711e-01 -3.462923e+00 7.997326e-01 -2.757367e-01 6.794338e-01 -3.548954e-02 7.492685e-02 -4.971353e-01 -2.242972e-01 -5.929863e-01 -4.157988e-01 -2.963035e-01 1.011295e-01 -2.973117e-01 -1.988071e-01 1.364678e-02 -5.661732e-03 -2.345195e-01 -2.673955e-02 -2.167821e-01 5.682738e-02 2.195507e-01 3.406827e-01 -1.269335e-01 6.317845e-02 -2.268973e-01 1.057544e-01 1.627082e-01 -1.401501e-04
<VARIANCE> 39
 9.934827e+00 2.004999e+01 1.730207e+01 1.827898e+01 1.775773e+01 2.023454e+01 2.814685e+01 2.945446e+01 3.258112e+01 2.336828e+01 3.988314e+01 3.238506e+01 5.491125e-03 3.782321e-01 7.711548e-01 9.253622e-01 1.066805e+00 1.110736e+00 1.660393e+00 1.633216e+00 1.415690e+00 1.490821e+00 1.815258e+00 1.420195e+00 1.353001e+00 2.003784e-04 5.518193e-02 7.997888e-02 1.386365e-01 1.813430e-01 2.284376e-01 2.414478e-01 2.500945e-01 2.658710e-01 2.816909e-01 2.294024e-01 2.640970e-01 3.275013e-01 1.404611e-05
<GCONST> 6.619059e+01
<MIXTURE> 7 9.773734e-02
<MEAN> 39
 -6.376016e-01 1.309590e+01 -1.250220e+00 -4.102134e+00 -6.240622e+00 -3.273663e+00 -8.541556e+00 3.044098e-01 -1.865740e+00 -3.950954e+00 3.701112e+00 -3.985935e+00 8.341396e-01 -8.514457e-01 4.670096e-01 -1.102306e-02 -3.885181e-02 -6.470549e-03 -1.769770e-01 -7.957231e-02 -2.290424e-01 -7.823616e-02 -3.537033e-01 3.231114e-01 -2.237148e-01 3.885486e-02 5.563693e-02 -5.301908e-01 1.729789e-01 4.242064e-01 2.843298e-01 1.610326e-01 4.780248e-01 1.066121e-02 1.905424e-01 2.769687e-01 -1.669618e-01 4.310891e-01 -1.987629e-02
<VARIANCE> 39
 7.965966e+00 5.074787e+01 2.149817e+01 1.449697e+01 2.889850e+01 3.193680e+01 3.173512e+01 3.579943e+01 2.680243e+01 2.939345e+01 2.261218e+01 1.824158e+01 8.495719e-03 5.868522e-01 1.150294e+00 9.664353e-01 1.274038e+00 1.396423e+00 1.478769e+00 1.499998e+00 2.900557e+00 2.297992e+00 1.940464e+00 1.968132e+00 2.168453e+00 5.499707e-04 1.283254e-01 2.555682e-01 2.269473e-01 1.908999e-01 3.855413e-01 2.952000e-01 3.201617e-01 4.645781e-01 2.208372e-01 2.700255e-01 2.699787e-01 2.481822e-01 2.438649e-04
<GCONST> 7.818162e+01
<MIXTURE> 8 1.187802e-01
<MEAN> 39
 1.413385e+00 1.323282e+01 -2.642465e+00 -7.243608e-01 -4.855999e+00 -4.565168e+00 1.318580e+00 9.412275e-01 -2.877924e-01 1.212965e+00 -3.482918e+00 4.669412e+00 7.976408e-01 -9.585148e-01 -5.061080e-01 -9.211429e-01 -4.882778e-01 -9.095289e-01 -1.060766e+00 -1.491539e+00 -1.353087e+00 -1.426312e+00 -1.558750e+00 -1.424650e+00 -8.101968e-01 3.532382e-02 -1.229613e-01 -3.328638e-01 -8.093567e-02 -6.463996e-02 -1.301860e-02 -1.468552e-01 -2.072601e-01 -2.129660e-01 -1.444500e-01 -1.005157e-01 -3.336271e-03 -1.423967e-01 -4.985636e-03
<VARIANCE> 39
 1.366259e+01 2.779486e+01 1.426187e+01 1.405083e+01 1.063146e+01 1.307552e+01 1.484697e+01 2.796668e+01 1.743005e+01 2.362666e+01 1.848754e+01 1.891546e+01 7.097012e-03 5.020483e-01 5.096613e-01 5.365500e-01 8.202105e-01 1.054051e+00 1.191944e+00 1.103702e+00 1.125430e+00 1.156389e+00 1.465874e+00 1.633411e+00 1.852662e+00 3.218407e-04 9.874924e-02 1.006050e-01 1.115177e-01 1.469127e-01 2.014216e-01 1.556734e-01 1.909597e-01 2.193660e-01 2.223561e-01 2.212499e-01 2.557781e-01 2.353284e-01 5.092821e-05
<GCONST> 6.159921e+01
<MIXTURE> 9 6.422443e-02
<MEAN> 39
 -2.674718e+00 9.289443e+00 -4.653782e+00 -2.801765e+00 -5.311100e+00 -7.031464e+00 -3.013462e+00 -2.655613e+00 -4.797239e+00 -1.618014e+00 -5.023924e+00 3.411628e+00 8.816769e-01 -3.599393e-01 -4.999463e-02 2.230530e-01 8.363052e-01 5.905794e-01 9.077092e-02 -5.063611e-01 -6.470305e-01 -2.774818e-01 -3.776785e-01 -2.798113e-01 2.908357e-01 2.630001e-02 3.918368e-01 1.299143e-01 3.847594e-01 2.754058e-01 2.907974e-01 4.461872e-01 3.782632e-01 5.178015e-01 6.273149e-01 5.565307e-01 5.767816e-01 1.003958e-01 -1.066974e-02
<VARIANCE> 39
 1.215444e+01 4.623117e+01 8.796331e+00 1.339690e+01 1.262018e+01 1.905112e+01 1.749035e+01 2.410447e+01 2.050535e+01 1.804466e+01 3.354531e+01 3.631524e+01 6.118957e-03 4.020371e-01 1.884239e-01 3.175826e-01 4.859021e-01 4.883818e-01 6.423335e-01 8.638205e-01 8.316050e-01 8.062958e-01 1.046641e+00 1.051087e+00 1.860182e+00 1.287710e-04 7.124498e-02 8.370944e-02 6.920136e-02 1.227132e-01 1.186416e-01 2.001409e-01 1.800787e-01 1.943878e-01 1.814881e-01 1.654966e-01 3.347542e-01 3.317471e-01 7.630144e-05
<GCONST> 5.566360e+01
<MIXTURE> 10 5.937861e-02
<MEAN> 39
 -1.102293e+00 1.536924e+01 6.962302e-01 -3.493748e+00 -3.958457e+00 -5.597118e+00 -9.004057e+00 -7.585921e-01 -1.086792e+00 -4.134729e+00 6.553534e+00 -3.137943e+00 8.372483e-01 -2.544536e-01 5.234371e-01 -2.023969e-01 4.043940e-01 -1.634213e-01 1.344650e-01 -2.270574e-01 -1.441389e-02 -3.380719e-01 -4.175326e-01 -2.923680e-02 -3.976596e-01 1.183692e-02 4.921694e-02 -1.780626e-01 6.270219e-02 -1.412451e-01 6.259164e-02 9.818508e-03 4.358570e-02 4.644812e-02 8.411228e-02 1.073767e-01 -1.567002e-01 1.616257e-01 -1.173734e-03
<VARIANCE> 39
 5.237936e+00 1.946323e+01 6.847918e+00 1.337501e+01 1.398430e+01 9.598754e+00 1.014110e+01 1.436572e+01 2.008677e+01 2.893297e+01 1.014716e+01 7.060468e+00 5.107048e-03 1.986359e-01 2.378371e-01 2.525565e-01 3.969333e-01 4.773974e-01 4.579521e-01 5.734904e-01 4.113142e-01 7.509238e-01 4.432992e-01 6.372349e-01 7.314291e-01 1.648836e-04 2.358260e-02 4.827343e-02 5.166728e-02 9.190382e-02 6.854126e-02 6.849759e-02 7.637250e-02 8.443442e-02 1.193435e-01 1.155895e-01 7.335899e-02 9.262513e-02 1.913699e-05
<GCONST> 3.449648e+01
<MIXTURE> 11 5.937861e-02
<MEAN> 39
 -1.102293e+00 1.536924e+01 6.962302e-01 -3.493748e+00 -3.958457e+00 -5.597118e+00 -9.004057e+00 -7.585921e-01 -1.086792e+00 -4.134729e+00 6.553534e+00 -3.137943e+00 8.372483e-01 -2.544536e-01 5.234371e-01 -2.023969e-01 4.043940e-01 -1.634213e-01 1.344650e-01 -2.270574e-01 -1.441389e-02 -3.380719e-01 -4.175326e-01 -2.923680e-02 -3.976596e-01 1.183692e-02 4.921694e-02 -1.780626e-01 6.270219e-02 -1.412451e-01 6.259164e-02 9.818508e-03 4.358570e-02 4.644812e-02 8.411228e-02 1.073767e-01 -1.567002e-01 1.616257e-01 -1.173734e-03
<VARIANCE> 39
 5.237936e+00 1.946323e+01 6.847918e+00 1.337501e+01 1.398430e+01 9.598754e+00 1.014110e+01 1.436572e+01 2.008677e+01 2.893297e+01 1.014716e+01 7.060468e+00 5.107048e-03 1.986359e-01 2.378371e-01 2.525565e-01 3.969333e-01 4.773974e-01 4.579521e-01 5.734904e-01 4.113142e-01 7.509238e-01 4.432992e-01 6.372349e-01 7.314291e-01 1.648836e-04 2.358260e-02 4.827343e-02 5.166728e-02 9.190382e-02 6.854126e-02 6.849759e-02 7.637250e-02 8.443442e-02 1.193435e-01 1.155895e-01 7.335899e-02 9.262513e-02 1.913699e-05
<GCONST> 3.449648e+01
<MIXTURE> 12 1.078338e-01
<MEAN> 39
 -1.417402e+00 1.157610e+01 -4.742433e+00 -1.664874e+00 -7.077600e+00 -6.971282e+00 -2.777933e+00 -2.235620e+00 -4.215830e+00 -1.115915e+00 -6.391424e+00 3.448200e+00 8.564601e-01 -7.168813e-01 -7.467880e-01 -8.022935e-01 -2.895747e-01 -8.659445e-01 -1.162078e+00 -1.551210e+00 -1.592412e+00 -1.254740e+00 -1.261522e+00 -1.103902e+00 -6.487964e-01 2.558443e-02 2.799794e-01 7.349048e-02 2.771077e-01 1.450491e-01 2.709049e-01 2.966129e-01 3.220836e-01 3.397688e-01 4.054503e-01 3.152838e-01 4.060652e-01 2.019660e-01 -7.532787e-03
<VARIANCE> 39
 1.197391e+01 2.723089e+01 1.637555e+01 1.482360e+01 1.190618e+01 1.262445e+01 1.808844e+01 2.601243e+01 1.698817e+01 2.181741e+01 1.634658e+01 2.019885e+01 6.383660e-03 3.448482e-01 4.071305e-01 6.550800e-01 7.373410e-01 8.776954e-01 8.886806e-01 7.359646e-01 1.228729e+00 9.429480e-01 1.451068e+00 1.743344e+00 1.793803e+00 1.718959e-04 5.434493e-02 7.582172e-02 6.479122e-02 1.040973e-01 1.222176e-01 1.377002e-01 1.920100e-01 1.691213e-01 1.889870e-01 2.319012e-01 2.397498e-01 2.475600e-01 2.659259e-05
<GCONST> 5.603931e+01
<STATE> 4
<NUMMIXES> 12
<MIXTURE> 1 6.590421e-02
<MEAN> 39
 -9.415679e-01 1.181691e+01 -4.079249e+00 -2.808320e+00 -6.696444e+00 -6.379326e+00 -3.807561e+00 -1.748683e+00 1.553892e+00 4.965543e-01 3.601005e+00 3.103761e+00 8.773577e-01 2.943279e-02 5.014006e-01 3.974129e-01 7.072949e-01 3.863540e-01 4.860649e-01 3.888797e-01 6.351986e-02 2.547532e-01 2.971603e-01 4.963629e-01 5.108168e-01 1.267311e-02 1.043252e-01 -6.626041e-02 4.227896e-02 2.873014e-02 2.038250e-01 1.134233e-01 1.022099e-01 1.191800e-01 1.903495e-02 -2.293017e-02 -1.623751e-01 -8.642615e-02 -4.645758e-03
<VARIANCE> 39
 2.210264e+01 3.315110e+01 3.945371e+01 2.334078e+01 3.520494e+01 3.278590e+01 4.283407e+01 3.827201e+01 6.158463e+01 7.995390e+01 7.421390e+01 1.081076e+02 1.025667e-02 6.836107e-01 1.180488e+00 1.377396e+00 1.196532e+00 1.655563e+00 1.902310e+00 2.174103e+00 1.808822e+00 1.673392e+00 2.439595e+00 2.348828e+00 3.575693e+00 2.221810e-04 8.883010e-02 1.229186e-01 1.815587e-01 2.463177e-01 2.661858e-01 2.234973e-01 2.654954e-01 3.156506e-01 3.531874e-01 2.974248e-01 3.396608e-01 2.919492e-01 8.674710e-05
<GCONST> 8.354648e+01
<MIXTURE> 2 1.092618e-01
<MEAN> 39
 -1.382285e+00 1.456005e+01 1.952592e-01 -8.514643e-01 -7.515978e+00 -3.087819e+00 -1.038248e+01 -3.090840e-03 -1.969374e+00 -4.896102e+00 2.761796e+00 -3.459706e+00 8.703901e-01 -2.537356e-02 2.690336e-01 -2.975933e-02 1.053777e-01 1.128371e-01 4.241886e-02 -2.722321e-02 -9.456098e-04 2.645881e-01 2.099978e-02 -6.083874e-02 -1.750292e-01 5.820439e-03 5.034235e-02 -1.369437e-01 2.547045e-03 -1.014703e-01 1.737051e-01 -8.600117e-02 8.833414e-02 1.052027e-02 9.301894e-02 1.146148e-01 -6.973092e-03 6.574684e-02 -2.225309e-03
<VARIANCE> 39
 9.038803e+00 2.854949e+01 1.589631e+01 1.940253e+01 2.009165e+01 3.225799e+01 3.944194e+01 3.404734e+01 3.957117e+01 2.881949e+01 3.471083e+01 2.385525e+01 4.998162e-03 1.699925e-01 4.532173e-01 4.924106e-01 6.267635e-01 7.268043e-01 9.088887e-01 8.629181e-01 1.182731e+00 1.037213e+00 8.109241e-01 7.547239e-01 7.311414e-01 3.754082e-05 2.348195e-02 5.957117e-02 1.116834e-01 1.033437e-01 1.247841e-01 1.586045e-01 1.923439e-01 2.444758e-01 2.782252e-01 1.439499e-01 1.536202e-01 1.649206e-01 7.423763e-06
<GCONST> 5.328960e+01
<MIXTURE> 3 1.129722e-01
<MEAN> 39
 -6.749994e-01 1.369724e+01 -2.109786e+00 -1.723624e+00 -3.850522e+00 -5.862377e+00 -5.682914e+00 1.819736e+00 -5.558651e+00 3.104400e-01 -2.611517e+00 4.182609e-01 8.840768e-01 6.750788e-02 2.533074e-01 2.371906e-01 4.376801e-01 1.823963e-01 -6.821559e-02 1.934599e-01 2.013944e-01 1.997723e-01 2.350269e-02 -1.560890e-01 2.915680e-01 9.428107e-03 4.561032e-02 -1.230640e-01 -3.172497e-02 -6.094785e-02 -3.836721e-02 2.873304e-02 -1.695293e-03 3.062218e-04 1.142633e-01 1.876875e-02 1.845407e-01 -1.270810e-01 -3.476311e-03
<VARIANCE> 39
 6.528141e+00 3.719618e+01 9.199275e+00 1.063974e+01 2.088420e+01 2.696673e+01 2.027458e+01 2.271449e+01 1.945926e+01 2.364786e+01 2.581834e+01 1.959010e+01 3.721358e-03 1.649099e-01 3.371933e-01 5.403880e-01 4.801616e-01 8.405694e-01 5.085657e-01 1.045489e+00 8.638535e-01 9.334211e-01 9.449795e-01 1.070264e+00 8.042452e-01 6.752815e-05 2.846273e-02 5.994697e-02 8.275122e-02 8.687790e-02 1.544974e-01 9.647126e-02 1.335133e-01 1.741215e-01 1.353155e-01 1.597673e-01 1.477484e-01 1.257063e-01 1.408927e-05
<GCONST> 4.764798e+01
<MIXTURE> 4 1.110269e-01
<MEAN> 39
 -2.324726e+00 1.924684e+01 -1.875900e-02 -2.427850e+00 -3.335400e+00 -6.197932e+00 -9.944111e+00 -1.083038e+00 -1.810762e+00 -3.590819e+00 5.704568e+00 -3.186842e+00 8.573257e-01 -4.247197e-03 2.810294e-02 -6.724526e-02 -1.165884e-01 1.602132e-02 -2.494874e-02 1.947669e-02 -2.326780e-02 7.894909e-02 1.480542e-02 -2.614379e-02 7.810013e-02 7.192285e-04 1.478749e-02 -2.397536e-02 2.081025e-02 -3.035450e-02 -6.901825e-03 -6.704631e-03 1.565935e-02 4.813901e-02 3.643942e-02 -2.641561e-03 -1.044345e-02 2.127941e-02 -9.740738e-04
<VARIANCE> 39
 3.271409e+00 1.991434e+01 6.111802e+00 4.977952e+00 4.488001e+00 1.315207e+01 9.305203e+00 1.125997e+01 1.934283e+01 1.489101e+01 1.113677e+01 4.966570e+00 3.862272e-03 4.245431e-02 8.154271e-02 8.916197e-02 1.090448e-01 1.109481e-01 1.383309e-01 1.410570e-01 1.543300e-01 1.294828e-01 1.948082e-01 1.150856e-01 1.364888e-01 3.754082e-05 5.567149e-03 1.504984e-02 1.350177e-02 1.876448e-02 1.756239e-02 2.099836e-02 2.799623e-02 2.198634e-02 3.087015e-02 2.962176e-02 1.705430e-02 1.983254e-02 3.730629e-06
<GCONST> -4.662670e+00
<MIXTURE> 5 4.424969e-02
<MEAN> 39
 -3.240581e+00 4.861923e+00 -2.139693e+00 -7.634578e-01 -2.195684e+00 -1.994421e+00 -2.304727e+00 -7.476102e-01 -1.753729e+00 2.068999e+00 2.212340e+00 6.672011e+00 9.725183e-01 3.270734e-01 3.520247e-01 4.432558e-01 5.468528e-01 5.088841e-01 3.613660e-01 3.536596e-01 3.094198e-01 2.009058e-01 2.040837e-01 2.336133e-01 2.519865e-01 3.430354e-03 1.815942e-02 -3.084663e-02 -2.205113e-02 -5.027409e-02 -4.550809e-02 -3.294316e-02 3.197586e-02 -4.304271e-02 3.206496e-02 -6.627421e-02 -4.812668e-02 -7.007517e-02 -1.889562e-03
<VARIANCE> 39
 9.145778e+00 1.568089e+01 5.103837e+00 9.679249e+00 7.807217e+00 9.758213e+00 1.008306e+01 1.062022e+01 1.394499e+01 1.082386e+01 2.894967e+01 3.387178e+01 8.178990e-04 1.053521e-01 9.947640e-02 2.236530e-01 2.679072e-01 2.990730e-01 4.499073e-01 2.770881e-01 3.248700e-01 4.620880e-01 2.596449e-01 3.398605e-01 3.622239e-01 3.754770e-05 1.657495e-02 2.720257e-02 3.275179e-02 3.295349e-02 5.241598e-02 4.605494e-02 4.649726e-02 6.117423e-02 6.399444e-02 4.189968e-02 5.144116e-02 4.637550e-02 4.156761e-06
<GCONST> 1.737916e+01
<MIXTURE> 6 7.330269e-02
<MEAN> 39
 -2.989583e-01 1.377118e+01 -1.439734e+00 -1.600349e+00 -4.633206e+00 -6.467753e+00 -8.119311e+00 3.631439e+00 -7.080255e+00 2.299477e+00 -3.720090e+00 2.291214e+00 8.530959e-01 3.184016e-02 2.369843e-02 -1.094393e-01 -1.098465e-01 5.271441e-02 -1.064660e-01 2.068664e-01 -2.207266e-01 4.598231e-02 -1.810848e-01 5.504289e-02 4.246548e-02 8.185862e-04 1.246491e-02 -2.296621e-02 -7.578834e-03 -2.547365e-02 -1.518679e-02 -9.390246e-03 1.933941e-02 -2.277756e-02 5.434694e-02 -3.639324e-02 3.848296e-02 -5.974803e-02 -9.548547e-04
<VARIANCE> 39
 4.775099e+00 1.288203e+01 9.899142e+00 1.047078e+01 7.569111e+00 1.419447e+01 1.887321e+01 1.819118e+01 2.085059e+01 2.004166e+01 1.865746e+01 1.755096e+01 2.593202e-03 4.521867e-02 9.004112e-02 1.112011e-01 2.010057e-01 2.235279e-01 2.174002e-01 1.946054e-01 2.594514e-01 2.058310e-01 1.762983e-01 1.813904e-01 2.912312e-01 3.754082e-05 5.304515e-03 1.334387e-02 1.915294e-02 2.687750e-02 2.901669e-02 4.189963e-02 3.806644e-02 4.122550e-02 3.862112e-02 3.399615e-02 3.425138e-02 5.529459e-02 3.730629e-06
<GCONST> 9.362297e+00
<MIXTURE> 7 6.748968e-02
<MEAN> 39
 -5.311438e-01 1.373223e+01 -5.558873e+00 -2.640210e+00 -4.877450e+00 -8.931386e+00 -1.001459e+00 -1.421043e+00 -2.767777e+00 -4.440162e+00 -5.123172e+00 6.299532e-01 7.733141e-01 1.724320e-02 2.802640e-02 -4.188816e-02 -4.110447e-04 7.022562e-02 5.104315e-02 9.293605e-02 -6.614936e-02 1.232832e-01 -8.394050e-03 -3.696447e-02 -5.954289e-02 3.144764e-04 -1.923404e-03 -1.200723e-02 -1.334181e-02 -2.400228e-02 -1.690752e-02 -1.723727e-02 -2.663062e-02 -3.609968e-02 -1.105466e-02 3.165230e-02 -2.333340e-02 -2.749135e-02 -8.305595e-04
<VARIANCE> 39
 2.250683e+00 3.559752e+00 6.781123e+00 1.747373e+01 2.471184e+01 2.699920e+01 1.308348e+01 1.079900e+01 2.912218e+01 1.739596e+01 9.979594e+00 1.256730e+01 9.857734e-03 3.690637e-02 8.292164e-02 1.049679e-01 1.898452e-01 1.762384e-01 2.633981e-01 1.919304e-01 2.875330e-01 2.458356e-01 1.678135e-01 2.217204e-01 2.481712e-01 3.754082e-05 7.613936e-03 1.028701e-02 1.632974e-02 3.057074e-02 2.378376e-02 5.586610e-02 2.969358e-02 4.045009e-02 3.420436e-02 2.750197e-02 3.130062e-02 3.662150e-02 3.730629e-06
<GCONST> 7.832516e+00
<MIXTURE> 8 1.004846e-01
<MEAN> 39
 -1.871044e+00 2.600038e+00 -1.401029e+00 -6.679364e-01 -1.450390e+00 -1.262038e+00 -1.550282e+00 -4.371387e-01 -7.323589e-01 -1.732426e+00 -3.175583e-01 1.001239e+00 9.800614e-01 9.468695e-03 -6.465968e-02 -6.333364e-02 -3.137306e-02 1.618306e-02 -3.272473e-02 -7.419867e-02 -3.672112e-02 -6.296487e-04 -1.260844e-02 1.466616e-02 -1.362641e-01 -2.407361e-04 2.785229e-03 -1.909166e-02 1.655777e-03 -4.824014e-02 -2.940658e-02 -2.159758e-02 -1.346297e-03 1.847787e-02 -2.143338e-02 2.013982e-02 -3.029880e-02 -3.918224e-02 -9.194843e-04
<VARIANCE> 39
 2.741898e+00 3.274214e+00 3.945459e+00 6.411517e+00 5.205647e+00 5.597834e+00 1.033196e+01 3.785345e+00 6.446360e+00 6.357965e+00 1.318570e+01 5.545911e+00 8.178990e-04 5.506989e-02 9.711307e-02 1.588316e-01 1.649672e-01 2.187615e-01 2.585715e-01 3.004111e-01 2.484581e-01 2.615776e-01 2.329803e-01 1.832252e-01 2.139561e-01 3.754082e-05 7.304652e-03 1.111471e-02 2.227144e-02 2.257089e-02 3.199345e-02 3.717349e-02 4.915835e-02 3.045482e-02 3.248079e-02 3.682407e-02 3.072045e-02 3.712782e-02 3.730629e-06
<GCONST> -1.786318e+00
<MIXTURE> 9 9.235283e-02
<MEAN> 39
 -1.548508e+00 1.109049e+01 -5.797749e+00 -1.706929e+00 -7.740451e+00 -7.378952e+00 -4.476460e+00 -4.894296e+00 -5.433369e+00 -2.884525e+00 -5.631876e+00 2.530043e+00 8.926994e-01 3.755510e-01 3.359185e-01 4.543563e-01 7.262296e-01 5.772324e-01 6.553413e-01 4.065054e-01 4.247512e-01 4.914965e-01 3.587453e-01 5.646577e-01 3.811864e-01 9.294085e-03 9.653510e-02 1.448770e-01 1.997664e-01 7.622454e-02 2.349765e-01 1.812049e-01 3.290583e-01 3.924984e-01 3.154704e-01 2.770130e-01 2.345529e-01 8.005213e-02 -3.931793e-03
<VARIANCE> 39
 9.933706e+00 2.922998e+01 1.112166e+01 1.712788e+01 1.167648e+01 1.608933e+01 1.477305e+01 2.069774e+01 1.740560e+01 1.957670e+01 2.835306e+01 3.513586e+01 7.206127e-03 2.184892e-01 2.977878e-01 3.065153e-01 5.348508e-01 6.018613e-01 8.588102e-01 9.004011e-01 9.214543e-01 6.566786e-01 8.320403e-01 8.227877e-01 8.487738e-01 5.733713e-05 4.162631e-02 4.636796e-02 7.794546e-02 1.201644e-01 1.086419e-01 1.230197e-01 1.422220e-01 1.372616e-01 1.342938e-01 1.610997e-01 2.503337e-01 1.761386e-01 1.139749e-05
<GCONST> 4.773227e+01
<MIXTURE> 10 9.143998e-02
<MEAN> 39
 -3.710041e+00 1.565271e+01 1.239607e+00 -2.185079e+00 -5.349508e+00 -3.311439e+00 -8.725224e+00 8.168055e-01 6.585704e-01 -6.639452e+00 5.961342e+00 -4.358666e+00 8.817325e-01 -7.269351e-03 5.667929e-02 2.286296e-02 -5.316760e-02 1.136584e-01 -9.121978e-02 5.174557e-02 -7.948536e-02 -4.597041e-02 6.721077e-02 -3.945388e-02 -3.127664e-02 1.990919e-03 2.464314e-02 -5.360726e-02 1.294000e-02 -3.265283e-02 3.171505e-02 -5.275467e-03 1.289421e-02 -5.283636e-02 -1.884106e-02 6.756800e-02 -5.962797e-03 6.969739e-02 -1.588357e-03
<VARIANCE> 39
 1.488198e+01 1.615481e+01 8.832476e+00 1.038715e+01 1.074765e+01 8.080944e+00 1.025890e+01 1.443173e+01 7.698839e+00 1.707774e+01 6.830762e+00 8.171936e+00 6.093389e-03 7.958350e-02 8.777772e-02 1.231067e-01 1.476134e-01 2.016134e-01 1.687332e-01 1.486268e-01 2.451466e-01 3.299744e-01 2.011722e-01 1.602296e-01 1.748606e-01 3.754082e-05 1.592852e-02 1.969752e-02 2.522776e-02 2.241356e-02 4.185891e-02 2.858810e-02 2.724277e-02 4.014549e-02 4.317029e-02 3.228088e-02 2.806587e-02 3.548879e-02 3.730629e-06
<GCONST> 7.720861e+00
<MIXTURE> 11 4.638232e-02
<MEAN> 39
 -3.679013e+00 9.138189e+00 -1.417024e+00 -2.596426e+00 -2.859767e+00 -4.902826e+00 -1.609536e+00 -3.349553e-01 -3.718538e-02 2.798070e+00 5.627726e+00 7.549784e+00 9.619545e-01 1.046417e-02 -4.047421e-02 -4.555119e-02 -8.204578e-02 5.330242e-02 2.095130e-02 3.029387e-04 1.275448e-02 -2.543527e-02 4.500253e-03 -4.599326e-02 -1.101324e-01 -1.460209e-03 3.934067e-03 -2.685971e-03 -1.568492e-03 5.797658e-03 1.583872e-02 -1.719903e-02 -3.151787e-03 2.517744e-02 -1.796405e-03 -9.163468e-03 3.988600e-04 7.192479e-03 -6.101706e-04
<VARIANCE> 39
 5.222773e+00 1.262641e+01 5.063076e+00 4.286406e+00 8.206159e+00 1.183468e+01 1.548956e+01 5.870611e+00 3.267666e+01 2.909567e+01 3.873848e+01 3.087249e+01 8.334054e-04 2.927459e-02 9.522630e-02 7.910663e-02 9.657234e-02 9.314977e-02 9.845502e-02 1.255497e-01 1.070097e-01 7.734352e-02 1.528370e-01 1.033791e-01 1.502912e-01 3.754082e-05 3.939038e-03 1.459207e-02 1.289647e-02 1.418379e-02 1.968688e-02 1.113757e-02 2.021677e-02 1.896255e-02 1.419552e-02 2.478729e-02 1.805615e-02 2.760235e-02 3.730629e-06
<GCONST> -6.385217e+00
<MIXTURE> 12 8.512927e-02
<MEAN> 39
 -1.961664e+00 1.173964e+01 -2.762402e+00 -5.079298e-01 -4.968975e+00 -5.664505e+00 -3.479225e+00 -1.155988e+00 -2.721341e+00 -1.155403e-01 3.481229e-02 7.416563e+00 9.132667e-01 -1.470299e-01 -3.175786e-01 -3.484447e-01 -1.275150e-01 -3.023168e-01 -4.689289e-01 -5.691369e-01 -4.401307e-01 -3.244474e-01 -1.306855e-01 -1.948441e-02 -1.091648e-01 9.090544e-03 2.594530e-03 -4.731067e-02 -6.197926e-02 -1.280393e-01 -7.736313e-02 -1.454382e-02 4.624179e-02 1.742560e-02 -2.528878e-02 -9.126537e-03 -1.060845e-01 -1.659368e-01 -3.777805e-03
<VARIANCE> 39
 1.762848e+01 3.021903e+01 1.156223e+01 1.276555e+01 1.825884e+01 2.739864e+01 1.988449e+01 1.285546e+01 2.718564e+01 3.141587e+01 4.770971e+01 5.560559e+01 4.294532e-03 9.903866e-02 1.955533e-01 2.403466e-01 3.401075e-01 4.064180e-01 5.716352e-01 4.393321e-01 5.409133e-01 4.013159e-01 3.779183e-01 6.077189e-01 8.736634e-01 4.929775e-05 2.574259e-02 2.945050e-02 4.167878e-02 4.611420e-02 7.714278e-02 7.714671e-02 8.188302e-02 9.020715e-02 1.031508e-01 1.047322e-01 1.293147e-01 1.449364e-01 6.706095e-06
<GCONST> 3.822109e+01
<STATE> 5
<NUMMIXES> 12
<MIXTURE> 1 6.825913e-02
<MEAN> 39
 -8.916396e-01 1.347571e+01 -2.161690e+00 -1.789824e+00 -6.147432e+00 -5.501412e+00 -4.654822e+00 -1.858513e+00 1.021154e+00 1.850953e-02 4.136392e+00 2.761808e+00 8.843527e-01 7.582802e-02 2.853483e-01 1.798168e-01 3.049094e-01 1.939534e-01 2.878972e-01 2.537203e-01 -8.673835e-02 2.329958e-01 1.274618e-01 1.324330e-01 4.907979e-02 7.759024e-03 2.564825e-02 -1.353032e-01 -4.026106e-03 -2.256291e-01 5.712293e-02 -8.873224e-02 3.466245e-02 -3.178034e-02 3.676429e-02 -4.713125e-02 -1.822319e-01 -1.567441e-01 -3.302262e-03
<VARIANCE> 39
 1.608060e+01 3.751884e+01 5.151855e+01 2.476470e+01 2.807453e+01 3.257859e+01 4.154041e+01 2.859871e+01 4.659578e+01 7.867444e+01 5.488963e+01 1.055783e+02 7.557529e-03 4.977072e-01 1.009629e+00 1.136636e+00 1.272341e+00 1.688198e+00 1.350096e+00 2.093375e+00 1.527213e+00 1.250321e+00 1.960364e+00 1.812459e+00 2.357256e+00 1.054498e-04 7.090095e-02 1.089751e-01 1.953794e-01 1.923533e-01 2.467661e-01 2.407338e-01 3.157724e-01 1.804262e-01 2.413471e-01 2.950659e-01 2.829821e-01 2.946055e-01 3.138514e-05
<GCONST> 7.664561e+01
<MIXTURE> 2 5.965899e-02
<MEAN> 39
 -5.252540e-01 1.234843e+01 -5.688282e+00 -1.452141e+00 -7.663740e+00 -7.530816e+00 -3.936091e+00 -3.380604e+00 -3.851066e+00 -2.588662e+00 -6.027558e+00 1.370548e+00 8.798257e-01 3.485421e-01 5.841951e-01 5.690798e-01 6.793180e-01 9.267762e-01 1.009281e+00 1.010182e+00 7.655510e-01 8.813956e-01 7.085789e-01 7.403081e-01 4.045059e-01 -6.811872e-04 5.228182e-02 4.522147e-02 1.225338e-01 5.143303e-02 1.506579e-01 7.454015e-02 1.900194e-01 9.235735e-02 1.172811e-01 1.259020e-01 9.545983e-02 1.198287e-02 -1.089419e-03
<VARIANCE> 39
 1.437222e+01 1.950242e+01 1.334243e+01 1.393126e+01 1.333541e+01 1.823305e+01 1.662045e+01 2.748828e+01 1.891516e+01 2.314993e+01 1.479655e+01 2.811811e+01 7.670708e-03 6.901820e-02 2.649707e-01 2.336693e-01 3.624313e-01 3.065158e-01 4.887415e-01 4.283044e-01 5.060670e-01 5.783309e-01 5.069456e-01 4.053281e-01 5.561709e-01 3.754082e-05 9.628492e-03 2.525854e-02 3.188128e-02 4.245331e-02 6.413586e-02 7.309544e-02 8.792841e-02 8.248959e-02 7.379667e-02 6.578504e-02 7.113735e-02 1.044093e-01 3.730629e-06
<GCONST> 3.064903e+01
<MIXTURE> 3 5.559195e-02
<MEAN> 39
 -1.617553e+00 1.159776e+01 -6.743577e+00 -3.272917e+00 -1.026319e+01 -9.868109e+00 -5.560721e+00 -4.292131e+00 -6.383503e+00 -5.338974e+00 -7.966214e+00 -5.257919e-01 8.743849e-01 3.764229e-02 7.673964e-02 -3.189113e-02 -1.048032e-02 -2.942938e-02 6.164290e-04 1.106363e-01 1.766641e-01 1.568376e-01 -1.159235e-01 -2.495225e-02 -1.612924e-01 -2.346211e-04 1.824366e-01 2.509462e-01 4.102458e-01 3.893403e-01 4.886080e-01 5.227835e-01 5.031022e-01 4.581590e-01 5.304353e-01 3.995517e-01 3.411223e-01 2.458286e-01 -8.802735e-04
<VARIANCE> 39
 1.666326e+01 2.147090e+01 1.674810e+01 1.590950e+01 1.214495e+01 1.876921e+01 2.011825e+01 2.156861e+01 1.988607e+01 2.870060e+01 1.457997e+01 3.789415e+01 5.907423e-03 9.338035e-02 1.756761e-01 2.996244e-01 3.299907e-01 3.332411e-01 5.554284e-01 4.612830e-01 4.681413e-01 4.536015e-01 5.913312e-01 5.160033e-01 5.454547e-01 3.754082e-05 1.402254e-02 4.071094e-02 3.575285e-02 6.251793e-02 6.491457e-02 6.420815e-02 8.370116e-02 7.022537e-02 9.204978e-02 8.786403e-02 9.027732e-02 1.292453e-01 3.730629e-06
<GCONST> 3.380078e+01
<MIXTURE> 4 6.246122e-02
<MEAN> 39
 -1.376145e+00 1.787366e+01 1.915818e+00 -3.027151e-01 -9.239882e+00 -2.014396e+00 -1.473690e+01 2.456764e+00 -1.720049e-01 -5.018393e+00 4.773608e+00 -5.535480e+00 8.607143e-01 8.849643e-03 3.031426e-02 1.037977e-01 1.922423e-03 1.624240e-01 -1.708778e-01 1.382364e-01 2.006830e-01 4.367537e-02 8.902236e-02 1.291571e-01 -1.658614e-01 -7.513955e-05 8.611149e-03 -7.188131e-02 -1.088680e-02 -1.032870e-01 6.785173e-02 -4.715621e-02 1.070449e-01 -1.510822e-01 2.060803e-02 2.354542e-03 1.087953e-02 8.365136e-02 -9.876664e-04
<VARIANCE> 39
 1.094498e+01 2.230648e+01 9.859121e+00 1.268036e+01 2.645176e+01 2.467498e+01 2.080029e+01 2.259701e+01 2.724304e+01 1.834878e+01 1.421306e+01 1.698972e+01 3.715832e-03 5.215580e-02 1.407398e-01 3.364174e-01 3.663133e-01 4.264385e-01 7.970972e-01 8.159477e-01 8.161170e-01 1.011332e+00 6.397849e-01 6.489955e-01 5.324815e-01 3.754082e-05 1.222365e-02 3.171933e-02 4.916475e-02 6.330655e-02 8.292533e-02 1.282422e-01 1.439580e-01 1.543515e-01 2.485531e-01 1.154788e-01 1.173156e-01 6.249664e-02 3.730629e-06
<GCONST> 3.761843e+01
<MIXTURE> 5 1.251742e-01
<MEAN> 39
 6.594706e-01 1.438941e+01 -3.454321e+00 8.663311e-01 -5.762456e+00 -4.882135e+00 -1.556182e+00 -5.421187e-01 -1.751300e+00 -1.012048e+00 -4.148741e+00 2.297944e+00 8.775962e-01 3.199689e-01 4.253609e-01 3.831761e-01 5.679759e-01 6.480964e-01 5.329820e-01 7.352108e-01 4.877461e-01 5.758469e-01 6.685569e-01 5.401165e-01 4.312898e-01 1.046732e-03 -1.394492e-01 -2.344235e-01 -2.532676e-01 -3.569191e-01 -2.682487e-01 -3.519577e-01 -2.206521e-01 -3.502898e-01 -2.766049e-01 -2.134653e-01 -2.096076e-01 -2.196949e-01 -1.007669e-03
<VARIANCE> 39
 1.438596e+01 2.679829e+01 1.256813e+01 1.363697e+01 1.249694e+01 2.132599e+01 1.488092e+01 2.955851e+01 2.102973e+01 2.392144e+01 2.439797e+01 3.105756e+01 6.598292e-03 1.226988e-01 2.323585e-01 2.794209e-01 3.726922e-01 5.255474e-01 6.531975e-01 5.751380e-01 7.056106e-01 6.270394e-01 6.591130e-01 6.110355e-01 7.484376e-01 3.754082e-05 2.403272e-02 4.370857e-02 6.970637e-02 7.686678e-02 9.136546e-02 1.278333e-01 1.424545e-01 1.027890e-01 1.179520e-01 1.653361e-01 1.204238e-01 1.357410e-01 3.945586e-06
<GCONST> 4.137578e+01
<MIXTURE> 6 7.771739e-02
<MEAN> 39
 1.306288e-02 1.699650e+01 -4.745332e+00 -1.237265e+00 -5.945266e+00 -7.626311e+00 -2.794151e+00 -2.346806e+00 4.794872e-01 1.997406e+00 -6.096835e-01 4.280046e+00 8.513052e-01 1.723656e-02 1.626617e-02 -1.604153e-01 -8.568479e-02 2.608662e-02 -1.605926e-01 -3.439462e-02 -1.199728e-01 1.323325e-01 5.890423e-02 -6.991372e-02 -1.699275e-01 -1.030567e-03 -1.442458e-02 -6.082856e-02 9.977638e-03 -4.231127e-02 -3.363183e-03 -2.198217e-02 -1.177651e-02 3.937033e-02 5.031263e-02 -4.194377e-02 3.450447e-02 -5.010560e-02 -1.026346e-03
<VARIANCE> 39
 1.390012e+01 3.332560e+01 4.427878e+01 1.389527e+01 1.536436e+01 1.378839e+01 1.681318e+01 3.048175e+01 3.729718e+01 5.002022e+01 7.635242e+01 7.822667e+01 6.403950e-03 8.884089e-02 1.428001e-01 2.421143e-01 3.563735e-01 3.629423e-01 4.659686e-01 4.767231e-01 4.391591e-01 4.484479e-01 3.647799e-01 4.317929e-01 4.392254e-01 3.754082e-05 1.424817e-02 2.661585e-02 4.936782e-02 5.637364e-02 5.377313e-02 6.937871e-02 1.044287e-01 8.329542e-02 9.009130e-02 9.281852e-02 1.078445e-01 1.151185e-01 3.730629e-06
<GCONST> 3.741768e+01
<MIXTURE> 7 1.635563e-01
<MEAN> 39
 -2.197862e-01 1.204416e+01 -3.502981e+00 7.213114e-01 -5.209752e+00 -6.532146e+00 -3.406348e+00 -2.221230e+00 -3.661821e+00 -1.539479e+00 -6.268425e+00 1.993861e+00 9.071468e-01 2.660914e-02 -1.332978e-02 -2.336546e-03 5.416431e-02 -2.743283e-02 -5.557315e-02 5.714053e-02 -2.316105e-02 1.776375e-01 2.097598e-02 -3.411672e-02 -1.619363e-01 -1.026338e-03 -5.405219e-02 -3.613546e-02 -4.213501e-02 -9.208264e-02 -4.148514e-02 -1.016316e-01 -2.145456e-02 -1.980298e-02 -2.606998e-02 -4.675924e-02 2.651078e-02 -6.541142e-02 -1.185684e-03
<VARIANCE> 39
 1.412670e+01 1.702987e+01 9.643520e+00 1.429870e+01 1.359325e+01 2.415710e+01 1.886152e+01 3.662602e+01 1.280157e+01 1.857550e+01 1.825694e+01 3.005097e+01 3.065781e-03 8.188815e-02 1.568123e-01 1.972231e-01 3.209451e-01 3.590897e-01 3.811944e-01 3.580514e-01 4.517283e-01 4.395662e-01 4.177598e-01 3.906306e-01 4.130595e-01 3.754082e-05 1.367392e-02 2.175209e-02 3.611153e-02 3.948343e-02 6.594809e-02 6.061681e-02 7.794567e-02 7.008670e-02 8.239347e-02 7.389798e-02 7.276294e-02 7.132146e-02 3.730629e-06
<GCONST> 2.750916e+01
<MIXTURE> 8 9.733541e-02
<MEAN> 39
 8.432800e-02 1.366594e+01 -3.396523e+00 5.702821e-01 -5.038936e+00 -4.592286e+00 -8.231529e-01 -2.689680e-01 -1.549353e+00 -6.686827e-01 -3.727680e+00 3.062389e+00 8.820111e-01 -1.504247e-01 -3.685642e-01 -5.274053e-01 -4.858360e-01 -4.720903e-01 -6.287999e-01 -3.628133e-01 -5.733147e-01 -4.594286e-01 -4.762756e-01 -4.773650e-01 -4.467767e-01 1.066754e-03 -1.480627e-01 -2.223886e-01 -2.762275e-01 -3.591343e-01 -3.167951e-01 -3.397829e-01 -3.476073e-01 -3.233086e-01 -2.699271e-01 -2.736914e-01 -2.424329e-01 -2.885068e-01 -1.108235e-03
<VARIANCE> 39
 1.428864e+01 2.825911e+01 1.094169e+01 1.314239e+01 1.216307e+01 2.090805e+01 1.407690e+01 2.167620e+01 1.953196e+01 1.998878e+01 2.253193e+01 3.048636e+01 6.369220e-03 9.227380e-02 1.842048e-01 2.489001e-01 3.280126e-01 3.700560e-01 3.866588e-01 4.603046e-01 4.728391e-01 5.113901e-01 6.239004e-01 4.802161e-01 4.716389e-01 3.754082e-05 1.800168e-02 4.525150e-02 4.397717e-02 5.419728e-02 5.657352e-02 1.025060e-01 9.140981e-02 9.034097e-02 7.998713e-02 8.355837e-02 6.995790e-02 8.691317e-02 4.543878e-06
<GCONST> 3.297098e+01
<MIXTURE> 9 4.624163e-02
<MEAN> 39
 2.082255e-01 1.329377e+01 -6.223091e+00 -2.309489e+00 -9.608698e+00 -8.179532e+00 -5.741301e+00 -3.331040e+00 -3.477405e+00 -5.451491e+00 -6.011111e+00 -1.773451e+00 8.776742e-01 1.210937e-01 2.446877e-01 1.565085e-01 3.030028e-01 3.389362e-01 4.590715e-01 3.219053e-01 1.962194e-01 4.226882e-01 4.954498e-01 3.776238e-01 3.515446e-01 -9.405191e-04 8.558088e-02 1.487402e-01 2.151470e-01 2.175192e-01 3.309438e-01 2.479034e-01 3.489153e-01 3.060254e-01 2.042054e-01 3.105752e-01 2.546258e-01 2.638224e-01 -1.190901e-03
<VARIANCE> 39
 1.465435e+01 2.053497e+01 1.361715e+01 1.365867e+01 1.328420e+01 2.632846e+01 2.398323e+01 3.107917e+01 1.703554e+01 3.864161e+01 3.134417e+01 3.310258e+01 5.373050e-03 7.443564e-02 1.359865e-01 2.345993e-01 3.518362e-01 3.809645e-01 4.254868e-01 4.971046e-01 4.472076e-01 4.378996e-01 4.151347e-01 3.545275e-01 2.881092e-01 3.754082e-05 1.506264e-02 2.563128e-02 3.568548e-02 4.317464e-02 5.431245e-02 7.584593e-02 5.843071e-02 7.392778e-02 1.189027e-01 1.022519e-01 9.560990e-02 9.901189e-02 3.730629e-06
<GCONST> 3.186137e+01
<MIXTURE> 10 4.691369e-02
<MEAN> 39
 -1.363645e+00 1.584101e+01 8.343002e-01 -1.779048e+00 -6.732719e+00 -3.691560e+00 -1.297792e+01 -2.161471e-01 -1.646176e-02 -5.504261e+00 5.801770e+00 -5.705205e+00 8.694839e-01 2.612146e-03 5.069533e-02 -1.591497e-03 -2.809479e-03 1.918674e-01 2.924599e-02 1.232634e-01 1.044012e-01 -1.432649e-02 5.048102e-02 -4.167435e-02 -2.493759e-02 -1.510002e-04 9.543259e-03 -5.054626e-02 -3.137441e-03 -5.552765e-02 1.260884e-02 -4.740071e-02 7.590332e-02 -7.180057e-03 4.801223e-03 -1.063759e-02 3.222162e-03 8.409259e-02 -1.117872e-03
<VARIANCE> 39
 1.002369e+01 2.131463e+01 1.088151e+01 1.769055e+01 2.385791e+01 2.495220e+01 1.913966e+01 2.626024e+01 2.664747e+01 2.437837e+01 1.621626e+01 1.468345e+01 4.621406e-03 7.418087e-02 1.463422e-01 2.868449e-01 3.001440e-01 3.484662e-01 5.221326e-01 6.407781e-01 6.208944e-01 5.651558e-01 4.893318e-01 5.687805e-01 4.911264e-01 3.754082e-05 1.348304e-02 3.016792e-02 4.902319e-02 5.569412e-02 7.792301e-02 9.435852e-02 1.005383e-01 1.401457e-01 1.325160e-01 9.448180e-02 9.124524e-02 7.330976e-02 3.730629e-06
<GCONST> 3.435857e+01
<MIXTURE> 11 9.366713e-02
<MEAN> 39
 -1.325501e+00 1.650523e+01 -4.843502e-01 -2.086237e+00 -4.930582e+00 -3.831350e+00 -1.079962e+01 -4.564177e-01 -1.386358e+00 -5.525592e+00 5.798458e+00 -4.471762e+00 8.602473e-01 1.204691e-02 -1.241011e-02 5.904676e-03 -9.334042e-02 1.888940e-01 -2.896318e-02 8.509679e-02 2.934829e-04 8.958640e-02 -1.076757e-02 -1.210684e-02 -1.051837e-02 -3.112864e-04 -1.164040e-02 -6.167911e-02 5.931915e-02 -7.710941e-02 -8.186719e-03 -9.967688e-02 1.801693e-02 6.316996e-03 4.831740e-02 4.758880e-02 -1.152312e-02 2.194815e-02 -8.937939e-04
<VARIANCE> 39
 7.351686e+00 2.411932e+01 1.083115e+01 1.333430e+01 1.897578e+01 1.658681e+01 1.192649e+01 2.063999e+01 2.080495e+01 3.005895e+01 1.195303e+01 1.246493e+01 4.785446e-03 9.543829e-02 1.304866e-01 1.765424e-01 2.120743e-01 2.168230e-01 3.288806e-01 4.026791e-01 3.361239e-01 3.384275e-01 4.385512e-01 3.221218e-01 3.485432e-01 3.754082e-05 1.893559e-02 2.319940e-02 3.480791e-02 4.450879e-02 4.605636e-02 4.770321e-02 5.550664e-02 5.782450e-02 6.482924e-02 6.895427e-02 5.960911e-02 8.091051e-02 3.730629e-06
<GCONST> 2.328358e+01
<MIXTURE> 12 1.034186e-01
<MEAN> 39
 -1.052890e+00 1.157017e+01 -5.433647e+00 -2.015915e+00 -8.301397e+00 -8.695538e+00 -5.122704e+00 -3.690514e+00 -4.098253e+00 -4.299528e+00 -5.883715e+00 7.475483e-01 8.822225e-01 -2.597828e-01 -4.420333e-01 -6.850905e-01 -6.490515e-01 -6.842061e-01 -7.587072e-01 -7.102387e-01 -6.861048e-01 -6.072972e-01 -6.365795e-01 -4.783706e-01 -5.900577e-01 1.308696e-03 5.734438e-02 1.439085e-01 1.571250e-01 1.324413e-01 2.186984e-01 2.528905e-01 2.483698e-01 2.662136e-01 2.306183e-01 1.470957e-01 1.386935e-01 1.234145e-01 -1.504528e-03
<VARIANCE> 39
 1.507992e+01 2.554887e+01 1.460473e+01 1.212970e+01 1.523227e+01 2.757661e+01 2.357717e+01 2.538927e+01 1.569547e+01 2.608366e+01 2.567700e+01 3.823755e+01 6.315020e-03 1.019714e-01 1.951320e-01 2.844727e-01 4.044975e-01 4.509382e-01 4.436209e-01 6.028813e-01 4.327727e-01 4.572496e-01 4.299296e-01 6.440064e-01 6.337973e-01 3.754082e-05 1.244753e-02 3.650619e-02 4.190623e-02 5.742688e-02 7.228251e-02 8.492557e-02 9.842509e-02 1.030373e-01 7.875314e-02 9.308455e-02 8.130176e-02 6.630701e-02 4.109696e-06
<GCONST> 3.538623e+01
<STATE> 6
<NUMMIXES> 12
<MIXTURE> 1 3.417736e-02
<MEAN> 39
 -2.513597e+00 7.598515e+00 -5.635126e+00 -3.680034e+00 -9.158198e+00 -8.371551e+00 -3.944541e+00 -3.368293e+00 -4.219259e+00 -5.388915e+00 -5.395426e+00 1.437591e+00 8.764803e-01 4.469979e-01 5.120419e-01 8.543164e-01 9.040262e-01 1.141773e+00 7.994660e-01 9.587890e-01 1.034028e+00 1.139628e+00 8.175880e-01 5.023530e-01 2.956908e-01 -2.947801e-03 1.994808e-01 1.489718e-01 2.483387e-01 2.130177e-01 5.188538e-01 3.328544e-01 2.561554e-01 2.991572e-01 3.391441e-01 3.518152e-01 2.680400e-01 -1.992236e-02 -1.282713e-03
<VARIANCE> 39
 1.245090e+01 4.411513e+01 1.585284e+01 1.468636e+01 1.702089e+01 2.299670e+01 2.272958e+01 1.781608e+01 2.689940e+01 2.279638e+01 3.601826e+01 5.163153e+01 1.304537e-02 4.486941e-01 2.527967e-01 4.127569e-01 5.170525e-01 9.422007e-01 6.288429e-01 5.567496e-01 7.360225e-01 6.139885e-01 2.886392e-01 5.919106e-01 1.061451e+00 4.984559e-05 4.792969e-02 5.773663e-02 9.940249e-02 1.192883e-01 1.211427e-01 1.380855e-01 1.223677e-01 1.736934e-01 1.814127e-01 1.273417e-01 1.878522e-01 1.312300e-01 1.463404e-05
<GCONST> 5.090940e+01
<MIXTURE> 2 7.362244e-02
<MEAN> 39
 -1.372960e+00 2.097591e-01 -1.802443e+00 -2.011201e+00 -1.926836e+00 -2.436199e+00 -2.594647e+00 -2.334464e+00 -2.502435e+00 -3.405855e+00 -2.718697e+00 -3.034187e+00 9.663210e-01 2.163500e-01 1.997312e-01 2.816346e-01 2.888051e-01 2.389305e-01 1.900409e-01 3.425892e-01 3.709814e-01 3.982621e-01 2.409030e-01 1.513185e-01 2.589247e-01 -1.707871e-03 3.416322e-02 7.416806e-02 5.407330e-02 5.514824e-02 1.933912e-02 8.543416e-02 1.238617e-01 9.657206e-02 9.905206e-02 1.074221e-01 6.369868e-02 1.426760e-01 -6.785804e-04
<VARIANCE> 39
 2.589204e+00 2.279833e+00 6.409887e+00 7.097469e+00 7.136107e+00 4.074373e+00 8.788508e+00 7.130163e+00 4.960403e+00 5.422441e+00 1.023833e+01 7.584174e+00 8.178990e-04 8.986164e-02 1.439678e-01 2.928077e-01 3.384378e-01 5.432526e-01 3.718350e-01 6.672856e-01 5.387030e-01 3.721132e-01 4.503302e-01 4.583269e-01 4.747521e-01 3.754082e-05 1.124924e-02 1.658964e-02 3.305315e-02 4.053096e-02 8.151203e-02 7.404853e-02 9.399471e-02 5.452795e-02 5.465425e-02 7.530313e-02 6.046207e-02 7.064124e-02 3.730629e-06
<GCONST> 1.349677e+01
<MIXTURE> 3 6.111181e-02
<MEAN> 39
 -1.646390e+00 -4.095588e-01 -3.633761e+00 -2.724409e+00 -3.636225e+00 -3.179064e+00 -3.827311e+00 -4.289359e+00 -3.212378e+00 -3.175774e+00 -2.819622e+00 -1.060342e+00 9.694894e-01 -1.347491e-01 -4.023191e-01 -4.667019e-01 -5.308728e-01 -6.718014e-01 -7.965414e-01 -3.974581e-01 -4.264385e-01 -7.512040e-01 -6.814939e-01 -5.894837e-01 -5.059854e-01 -2.444099e-03 1.272415e-01 2.561427e-01 3.324306e-01 2.840551e-01 3.721932e-01 2.363742e-01 3.525074e-01 4.967113e-01 2.681801e-01 3.063195e-01 2.100980e-01 2.092163e-01 -1.004818e-03
<VARIANCE> 39
 5.758924e+00 2.641493e+00 5.568481e+00 1.035411e+01 1.404390e+01 7.734787e+00 1.000501e+01 1.168641e+01 1.357246e+01 1.184716e+01 2.180869e+01 1.413113e+01 9.453837e-04 1.651244e-01 2.997455e-01 4.234647e-01 4.792668e-01 7.208482e-01 4.420300e-01 8.190218e-01 1.055838e+00 5.772766e-01 6.399060e-01 1.380718e+00 5.521105e-01 3.754082e-05 2.629154e-02 6.481044e-02 9.574451e-02 1.069982e-01 1.643395e-01 1.058637e-01 1.449196e-01 2.150305e-01 1.201746e-01 8.571865e-02 2.429544e-01 8.017759e-02 3.730629e-06
<GCONST> 3.491452e+01
<MIXTURE> 4 7.747807e-02
<MEAN> 39
 -2.418283e+00 1.625598e+01 2.112952e+00 -3.424018e+00 -7.132907e+00 -3.768712e+00 -1.047848e+01 2.019600e+00 -8.230603e-01 -3.996070e+00 3.865401e+00 -5.594857e+00 8.729831e-01 4.137642e-03 -1.749114e-01 1.326317e-01 -1.992430e-01 1.579663e-01 -1.096279e-01 8.221488e-02 -2.717387e-01 6.177002e-01 -9.051193e-03 3.460654e-01 -3.407759e-02 2.040124e-03 -7.551721e-03 -1.133096e-01 -4.562140e-02 -1.334012e-01 2.756426e-01 -1.621395e-01 6.390715e-02 -2.288551e-01 9.341581e-02 -1.827374e-03 -5.304682e-02 1.109866e-01 -2.099835e-03
<VARIANCE> 39
 7.574604e+00 2.474895e+01 1.173659e+01 2.134628e+01 1.464753e+01 2.510237e+01 3.025838e+01 2.046527e+01 2.648587e+01 1.772211e+01 1.595673e+01 8.873302e+00 5.179555e-03 2.234600e-01 4.242339e-01 6.356234e-01 1.164993e+00 8.054717e-01 6.121107e-01 1.163776e+00 9.315748e-01 1.176065e+00 8.512986e-01 7.561923e-01 8.797146e-01 7.255891e-05 4.651637e-02 6.514819e-02 8.977315e-02 1.205234e-01 1.203036e-01 2.013395e-01 1.841293e-01 1.333120e-01 1.867472e-01 1.286166e-01 1.026088e-01 9.834174e-02 1.007114e-05
<GCONST> 4.980710e+01
<MIXTURE> 5 1.548335e-01
<MEAN> 39
 -1.092665e-01 2.171982e+00 -3.904592e-01 1.102389e-01 -2.578657e-01 -5.783632e-01 3.453768e-01 -3.725971e-01 -3.127791e-01 -5.965650e-01 -9.565344e-01 2.661594e-01 9.535213e-01 3.567392e-01 2.545052e-01 4.010623e-01 4.603091e-01 3.992282e-01 2.928779e-01 3.603265e-01 2.460894e-01 4.678727e-01 4.913229e-01 2.309662e-01 1.981636e-01 -4.960000e-03 -1.521017e-02 -9.153797e-02 -1.276483e-01 -1.031204e-01 -1.417807e-01 -1.214162e-01 -2.019086e-01 -1.560722e-01 -8.441032e-02 -3.216406e-02 -1.967794e-02 -5.257519e-02 -7.605078e-04
<VARIANCE> 39
 4.424796e+00 3.641432e+00 6.044887e+00 6.949842e+00 9.026471e+00 9.581805e+00 1.189778e+01 1.082933e+01 9.681959e+00 1.023550e+01 1.521844e+01 8.719568e+00 1.462210e-03 1.863990e-01 3.390272e-01 4.942455e-01 5.072841e-01 7.997910e-01 8.222369e-01 1.066720e+00 9.866823e-01 8.308094e-01 6.635549e-01 8.184950e-01 5.186102e-01 3.754082e-05 3.172915e-02 5.321783e-02 8.433527e-02 1.009032e-01 1.393509e-01 1.263596e-01 1.315569e-01 1.696403e-01 1.395822e-01 1.173426e-01 1.532955e-01 9.407689e-02 3.730629e-06
<GCONST> 3.447250e+01
<MIXTURE> 6 6.891384e-02
<MEAN> 39
 -1.334519e+00 1.244299e+01 -3.598444e+00 -7.363444e-01 -5.611405e+00 -5.151222e+00 -1.042623e+00 7.869161e-01 4.238717e+00 4.799750e+00 4.722234e+00 6.878298e+00 9.137889e-01 4.320284e-02 1.140824e-01 1.849956e-01 -7.447298e-02 3.053696e-01 1.751820e-01 2.098106e-01 1.662135e-01 2.725185e-01 2.111812e-01 1.517606e-01 2.202052e-02 2.802555e-03 -8.557214e-02 -2.940958e-01 -1.491609e-01 -3.854900e-01 -1.360125e-01 -1.713267e-01 -2.331799e-01 -2.028553e-01 -1.623338e-01 -1.168275e-01 -2.195495e-02 -2.252197e-01 -2.923918e-03
<VARIANCE> 39
 2.366721e+01 1.974461e+01 2.840004e+01 2.485369e+01 2.780993e+01 2.487098e+01 3.013337e+01 3.865378e+01 5.814763e+01 9.825594e+01 1.055352e+02 1.149665e+02 3.712706e-03 4.030514e-01 5.581816e-01 8.647248e-01 7.439030e-01 1.360370e+00 1.109646e+00 1.123729e+00 1.205775e+00 1.380983e+00 1.259756e+00 2.286829e+00 1.508524e+00 5.946331e-05 8.205745e-02 1.236637e-01 2.127368e-01 2.277684e-01 2.790020e-01 3.380944e-01 3.178777e-01 3.493803e-01 2.717753e-01 5.640879e-01 4.381714e-01 4.280789e-01 1.501035e-05
<GCONST> 7.445370e+01
<MIXTURE> 7 1.825254e-01
<MEAN> 39
 8.239741e-01 1.359946e+01 -4.582724e+00 4.354731e-01 -4.963600e+00 -5.756652e+00 -3.264568e+00 -1.731343e+00 -2.144844e+00 1.345924e-01 -1.828870e+00 3.047322e+00 8.835236e-01 3.845730e-02 -5.650454e-02 8.013796e-02 8.836141e-03 3.005413e-01 -2.191876e-02 2.713704e-01 1.434236e-02 2.632606e-01 1.380009e-01 1.447936e-01 -1.520221e-01 -2.142048e-03 -3.249229e-02 -9.382240e-02 6.479143e-02 -2.212282e-01 5.558189e-02 -1.611954e-01 -4.543651e-03 3.036049e-02 1.718298e-02 -1.072901e-01 -2.094558e-02 -1.235418e-01 -1.392494e-03
<VARIANCE> 39
 1.212264e+01 2.972454e+01 1.659816e+01 1.834927e+01 1.811523e+01 2.228427e+01 2.267795e+01 2.613761e+01 2.059866e+01 3.372667e+01 4.750471e+01 5.784028e+01 5.371840e-03 2.021050e-01 2.652564e-01 4.819663e-01 6.414175e-01 6.393287e-01 1.172391e+00 8.929174e-01 7.883881e-01 9.443977e-01 1.225859e+00 1.040073e+00 8.762448e-01 3.754082e-05 3.307809e-02 7.618516e-02 1.094456e-01 1.414160e-01 1.221795e-01 2.046124e-01 2.137291e-01 1.816000e-01 1.609640e-01 1.789047e-01 1.703022e-01 1.816519e-01 4.600304e-06
<GCONST> 5.362577e+01
<MIXTURE> 8 5.416758e-02
<MEAN> 39
 2.662297e-01 1.457822e+01 -4.279221e+00 -1.143806e-01 -6.339269e+00 -8.507058e+00 -3.556695e+00 -1.128595e+00 -3.850695e+00 7.376944e-01 -6.062614e+00 2.631434e+00 8.952361e-01 -5.646770e-01 -6.258309e-01 -8.080174e-01 -1.038823e+00 -7.715890e-01 -1.167809e+00 -5.490207e-01 -9.787642e-01 -4.502700e-01 -7.418033e-01 -5.884409e-01 -8.965111e-01 -8.546058e-04 -9.557947e-02 -1.626372e-01 -7.642606e-02 -3.640595e-01 4.454660e-03 -1.865162e-01 -1.243969e-02 -2.316189e-01 -9.866117e-03 -2.845719e-01 9.664880e-02 -1.981659e-01 -2.210961e-03
<VARIANCE> 39
 8.913235e+00 1.826273e+01 1.055243e+01 1.392782e+01 9.673303e+00 1.827148e+01 2.473214e+01 3.050726e+01 2.962719e+01 1.409355e+01 2.066639e+01 2.518173e+01 4.187842e-03 1.946691e-01 2.380418e-01 2.730251e-01 4.979254e-01 4.449753e-01 7.057685e-01 4.191374e-01 6.449502e-01 5.597861e-01 8.583882e-01 7.144504e-01 1.048057e+00 4.883692e-05 4.063350e-02 5.211691e-02 7.191435e-02 6.546348e-02 8.322166e-02 1.597912e-01 1.491223e-01 1.002574e-01 1.619389e-01 1.518500e-01 1.332818e-01 1.599633e-01 6.447709e-06
<GCONST> 4.234687e+01
<MIXTURE> 9 5.066671e-02
<MEAN> 39
 -2.020455e+00 -9.998626e-01 -4.375421e+00 -2.787352e+00 -3.099613e+00 -3.733372e+00 -4.342995e+00 -4.673920e+00 -3.109964e+00 -2.981284e+00 -2.224468e+00 -1.435539e+00 9.577437e-01 2.946540e-01 9.732641e-02 9.854488e-02 1.443336e-01 3.355315e-01 2.271283e-01 1.918093e-01 1.293589e-01 1.354238e-01 7.534783e-02 2.554014e-01 1.453947e-01 -3.587825e-03 1.514458e-01 3.057306e-01 3.659379e-01 2.578237e-01 3.102849e-01 3.440280e-01 3.797708e-01 3.972019e-01 2.758307e-01 3.024895e-01 2.088703e-01 2.143845e-01 -4.803984e-04
<VARIANCE> 39
 4.064207e+00 2.327216e+00 6.513132e+00 7.699158e+00 6.940019e+00 5.762481e+00 6.624458e+00 5.706821e+00 8.954853e+00 8.714466e+00 1.038232e+01 1.009855e+01 1.508588e-03 1.071758e-01 2.220897e-01 3.971860e-01 2.249737e-01 6.433183e-01 4.949388e-01 5.975099e-01 7.675055e-01 3.739354e-01 4.347599e-01 7.557303e-01 4.104374e-01 3.754082e-05 2.167148e-02 3.894572e-02 6.471214e-02 8.211133e-02 1.293548e-01 5.756669e-02 1.058228e-01 8.500392e-02 1.412189e-01 8.296087e-02 1.073886e-01 1.185152e-01 3.730629e-06
<GCONST> 2.318313e+01
<MIXTURE> 10 6.041838e-02
<MEAN> 39
 -1.239244e+00 1.653481e+01 1.546862e-01 -1.990397e+00 -3.063194e+00 -4.294521e+00 -8.975660e+00 -8.031341e-01 2.759140e-02 -4.958264e+00 6.112085e+00 -3.081023e+00 8.666336e-01 7.511183e-02 -7.059807e-02 5.161546e-02 -6.807766e-02 1.165424e-01 -2.307724e-01 4.089367e-02 1.069909e-01 1.962360e-01 1.779244e-01 -4.725307e-02 1.211971e-01 -3.743590e-03 2.930200e-02 -1.093611e-01 2.736861e-02 -3.248944e-02 2.565474e-02 -8.199690e-03 2.652474e-02 5.112370e-02 3.141451e-02 1.310636e-01 -1.205421e-01 2.035984e-02 -2.181773e-03
<VARIANCE> 39
 8.441579e+00 3.009757e+01 1.297959e+01 1.237653e+01 1.300737e+01 1.737142e+01 1.717957e+01 1.266261e+01 1.653129e+01 2.514854e+01 1.228532e+01 1.265911e+01 3.552419e-03 3.229915e-01 3.848341e-01 3.309184e-01 4.318394e-01 3.772977e-01 3.600435e-01 4.027250e-01 3.954508e-01 3.213034e-01 4.568096e-01 3.689851e-01 3.137596e-01 5.043931e-05 6.885558e-02 7.979776e-02 6.949024e-02 1.069223e-01 7.569991e-02 9.237269e-02 7.978103e-02 6.151024e-02 7.753157e-02 8.594179e-02 8.165827e-02 8.695344e-02 5.689542e-06
<GCONST> 3.427779e+01
<MIXTURE> 11 6.041838e-02
<MEAN> 39
 -1.239244e+00 1.653481e+01 1.546862e-01 -1.990397e+00 -3.063194e+00 -4.294521e+00 -8.975660e+00 -8.031341e-01 2.759140e-02 -4.958264e+00 6.112085e+00 -3.081023e+00 8.666336e-01 7.511183e-02 -7.059807e-02 5.161546e-02 -6.807766e-02 1.165424e-01 -2.307724e-01 4.089367e-02 1.069909e-01 1.962360e-01 1.779244e-01 -4.725307e-02 1.211971e-01 -3.743590e-03 2.930200e-02 -1.093611e-01 2.736861e-02 -3.248944e-02 2.565474e-02 -8.199690e-03 2.652474e-02 5.112370e-02 3.141451e-02 1.310636e-01 -1.205421e-01 2.035984e-02 -2.181773e-03
<VARIANCE> 39
 8.441579e+00 3.009757e+01 1.297959e+01 1.237653e+01 1.300737e+01 1.737142e+01 1.717957e+01 1.266261e+01 1.653129e+01 2.514854e+01 1.228532e+01 1.265911e+01 3.552419e-03 3.229915e-01 3.848341e-01 3.309184e-01 4.318394e-01 3.772977e-01 3.600435e-01 4.027250e-01 3.954508e-01 3.213034e-01 4.568096e-01 3.689851e-01 3.137596e-01 5.043931e-05 6.885558e-02 7.979776e-02 6.949024e-02 1.069223e-01 7.569991e-02 9.237269e-02 7.978103e-02 6.151024e-02 7.753157e-02 8.594179e-02 8.165827e-02 8.695344e-02 5.689542e-06
<GCONST> 3.427779e+01
<MIXTURE> 12 1.216652e-01
<MEAN> 39
 -6.812552e-01 1.778404e+00 -4.498888e-01 -5.573829e-02 1.015809e-01 5.134783e-02 -5.291082e-01 -5.817044e-01 -1.250942e-01 -1.737454e-01 -4.750133e-01 2.169095e-01 9.684899e-01 -1.217053e-01 -4.382260e-01 -5.377048e-01 -4.922866e-01 -5.210928e-01 -4.864874e-01 -5.376159e-01 -6.327727e-01 -3.436785e-01 -4.655344e-01 -3.042845e-01 -3.170458e-01 -1.832976e-03 -7.109170e-02 -1.341813e-01 -1.549866e-01 -1.664831e-01 -2.265240e-01 -2.359130e-01 -1.535224e-01 -1.415184e-01 -2.050759e-01 -1.798774e-01 -1.379430e-01 -1.285464e-01 -7.006752e-04
<VARIANCE> 39
 3.415236e+00 3.429605e+00 6.710766e+00 6.235858e+00 6.743824e+00 7.441103e+00 9.284325e+00 7.253937e+00 6.875980e+00 8.689816e+00 1.403624e+01 8.696576e+00 8.178990e-04 1.286528e-01 2.977044e-01 2.990018e-01 5.169715e-01 5.788367e-01 6.244479e-01 8.759615e-01 8.545955e-01 7.412362e-01 5.716665e-01 1.127175e+00 6.770768e-01 3.754082e-05 2.160817e-02 5.038887e-02 7.106671e-02 7.831345e-02 1.110040e-01 1.057958e-01 1.069048e-01 1.287711e-01 9.348475e-02 1.002458e-01 1.730597e-01 9.228844e-02 3.730629e-06
<GCONST> 2.797813e+01
<STATE> 7
<NUMMIXES> 12
<MIXTURE> 1 3.728779e-02
<MEAN> 39
 -3.837174e+00 9.116247e+00 -3.485757e+00 -6.633023e+00 -7.130153e+00 -5.668096e+00 6.645030e+00 6.137796e+00 2.096072e+01 1.745426e+01 9.110268e+00 4.601008e+00 9.754999e-01 2.514379e-01 3.170588e-01 2.052509e-01 9.205693e-02 1.842010e-01 8.777492e-02 1.154072e-01 5.248983e-01 2.788481e-01 -4.974005e-02 1.411962e-01 -8.065706e-01 1.087467e-03 -2.305040e-02 1.075376e-01 1.244809e-01 -2.005262e-02 1.621079e-01 3.631606e-02 1.119664e-01 -3.089895e-02 -1.558709e-01 1.246135e-01 1.145167e-01 2.128569e-02 -1.349722e-03
<VARIANCE> 39
 2.532894e+00 1.244140e+01 1.029167e+01 8.515823e+00 6.412700e+00 3.297697e+00 3.324735e+00 2.184091e+01 7.680833e+00 5.987106e+00 7.978807e+00 5.309755e+01 8.178990e-04 2.750720e-01 4.143489e-01 5.889602e-01 4.977811e-01 6.273589e-01 1.546005e-01 4.440528e-01 6.673884e-01 7.121926e-01 7.788321e-01 1.472140e-01 6.528614e-01 3.754082e-05 6.018941e-02 2.543475e-02 5.853001e-02 8.538311e-02 7.606795e-02 4.166288e-02 4.766493e-02 1.022555e-01 6.389867e-02 1.760028e-01 3.586623e-02 1.006844e-01 3.730629e-06
<GCONST> 2.416700e+01
<MIXTURE> 2 2.513354e-02
<MEAN> 39
 -7.493362e-01 1.299311e+01 -2.128953e+00 2.007418e+00 -8.461496e+00 -3.588471e+00 7.191353e+00 9.607393e+00 1.503298e+01 1.614591e+01 1.236131e+01 -7.849440e-03 9.105983e-01 -1.960042e-01 -3.694046e-02 -3.028148e-01 -6.177758e-01 6.461505e-01 -5.473233e-01 -3.265088e-03 -1.068285e-01 -2.872080e-01 2.877060e-01 6.031161e-02 -4.870183e-01 -3.253782e-03 -3.465421e-01 -3.046579e-01 -4.791110e-01 -3.711394e-01 2.743766e-02 -2.160934e-01 -3.359016e-01 -3.238242e-01 1.565890e-01 8.442877e-02 -2.037407e-01 4.105377e-01 -3.402597e-03
<VARIANCE> 39
 1.096575e+01 1.694899e+01 8.605070e+00 9.005729e+00 1.082286e+01 2.358012e+01 5.068994e+00 1.394278e+01 2.345544e+01 2.808316e+01 9.802215e+00 7.076834e+00 6.984165e-03 1.040554e+00 1.110412e+00 7.438768e-01 4.295689e-01 3.300485e-01 1.476794e+00 4.837734e-01 1.342304e+00 1.637779e+00 6.952008e-01 9.582300e-01 1.756473e+00 4.790462e-05 8.250263e-02 3.613001e-01 1.490437e-01 1.366454e-01 2.320720e-01 3.340046e-01 1.880542e-01 2.432022e-01 4.110731e-01 2.116931e-01 1.412974e-01 1.976620e-01 6.496562e-06
<GCONST> 5.436253e+01
<MIXTURE> 3 5.197363e-02
<MEAN> 39
 1.166340e+00 1.504893e+01 -2.597129e+00 -6.577412e-01 -7.745600e+00 -8.769311e+00 -3.741912e+00 -1.423697e+00 -4.014694e-01 -5.445876e+00 -4.574503e+00 -3.118079e+00 8.142722e-01 4.540778e-01 -4.575942e-01 -4.807520e-01 7.419904e-02 5.098808e-01 3.806598e-01 -4.921144e-01 -9.379702e-01 -1.993983e-01 4.354331e-01 1.079753e-01 -3.910961e-01 -4.297310e-03 1.308108e-01 -1.753263e-01 -1.800953e-01 -1.668894e-01 2.531862e-01 3.734224e-01 -2.153901e-01 -4.564131e-01 -1.276347e-01 1.998742e-01 2.252205e-01 3.088535e-01 -1.393883e-03
<VARIANCE> 39
 1.136590e+01 2.977406e+01 2.918993e+01 3.866079e+01 2.729015e+01 2.067357e+01 4.514313e+01 3.465355e+01 2.452770e+01 4.011832e+01 3.525768e+01 2.830481e+01 4.698022e-03 3.152700e-01 5.021108e-01 1.275681e+00 8.688380e-01 1.372086e+00 1.496870e+00 7.090446e-01 1.661257e+00 1.108677e+00 1.742404e+00 1.690311e+00 1.357954e+00 6.414036e-05 4.757938e-02 9.395439e-02 1.986075e-01 2.303059e-01 2.166646e-01 1.879594e-01 4.335523e-01 2.659761e-01 2.565157e-01 2.777115e-01 1.374299e-01 3.116055e-01 2.573792e-05
<GCONST> 6.741938e+01
<MIXTURE> 4 5.876983e-02
<MEAN> 39
 -2.398385e+00 1.640321e+01 -4.534076e-01 -2.220444e+00 -5.236654e+00 -5.033130e+00 -1.245774e+01 -1.613766e+00 2.388672e+00 -6.258397e+00 6.195803e+00 -4.544539e+00 8.919753e-01 -3.776323e-01 -2.734824e-01 1.387670e-01 -1.032343e+00 8.313615e-01 -6.315487e-01 3.560227e-01 -6.166809e-01 2.903228e-01 3.893597e-01 -2.032633e-01 4.198402e-01 7.470546e-04 -1.187023e-02 -2.733194e-01 2.522708e-01 -4.962174e-01 2.692612e-01 -7.289857e-03 3.070537e-01 1.674934e-01 -1.528235e-01 3.037998e-01 -3.921471e-01 2.557538e-01 -2.608101e-03
<VARIANCE> 39
 6.100065e+00 2.179187e+01 1.993410e+01 1.538136e+01 1.665884e+01 1.788938e+01 1.249894e+01 1.426385e+01 3.215097e+01 1.832800e+01 1.855517e+01 1.489740e+01 3.220855e-03 2.583827e-01 4.274159e-01 6.390144e-01 6.482039e-01 4.567826e-01 1.294745e+00 6.099345e-01 7.281960e-01 7.615052e-01 5.493253e-01 7.163841e-01 4.176621e-01 9.592924e-05 2.942595e-02 8.769938e-02 1.905748e-01 1.468912e-01 8.854739e-02 1.672088e-01 7.505118e-02 1.701496e-01 1.177979e-01 1.197865e-01 8.188853e-02 1.033320e-01 1.010746e-05
<GCONST> 4.504015e+01
<MIXTURE> 5 2.520103e-01
<MEAN> 39
 -5.333475e-01 1.116887e+01 -2.746707e-01 -5.572510e-01 -3.497132e+00 -4.753338e+00 -4.877032e+00 -6.498035e-01 -1.480069e+00 -1.789682e+00 5.699850e-01 -1.298902e-01 8.782685e-01 2.607259e-01 -6.069802e-02 1.340614e-01 1.020460e-01 1.623241e-01 8.771102e-04 2.117866e-02 1.604106e-01 5.127819e-02 3.085513e-01 6.340876e-02 -1.227007e-01 -1.251734e-02 1.488084e-01 -1.020222e-01 1.818609e-02 -4.409096e-02 8.312008e-02 8.601200e-02 8.209321e-02 -1.376280e-02 -1.597492e-02 2.596828e-02 -8.244225e-02 -1.097970e-01 -4.321990e-03
<VARIANCE> 39
 1.421593e+01 4.153316e+01 1.294756e+01 1.499793e+01 1.150524e+01 2.346416e+01 3.407287e+01 1.414896e+01 2.218829e+01 2.741773e+01 2.470067e+01 2.159619e+01 4.088499e-03 2.624117e-01 3.456673e-01 5.825039e-01 6.464295e-01 6.857893e-01 6.329066e-01 1.123511e+00 8.760650e-01 1.168208e+00 1.182828e+00 1.030558e+00 1.019472e+00 4.599074e-05 4.540467e-02 4.596369e-02 1.279951e-01 6.893802e-02 1.052851e-01 1.312333e-01 2.390455e-01 1.539030e-01 1.762466e-01 2.311069e-01 1.652614e-01 1.813192e-01 1.054493e-05
<GCONST> 5.179715e+01
<MIXTURE> 6 7.347947e-02
<MEAN> 39
 -1.634315e+00 1.115880e+01 -5.778469e+00 -7.159950e-01 -5.144817e+00 -4.559300e+00 2.936566e-01 -2.737365e+00 2.725932e+00 5.358085e+00 9.831138e+00 1.567890e+01 9.218401e-01 -4.703887e-01 -3.864552e-01 7.698450e-02 -8.483242e-01 1.564796e-01 -5.648726e-01 -1.144447e-01 -1.611895e-01 2.341767e-02 6.265226e-01 2.813240e-01 2.486498e-01 -7.195590e-05 2.881478e-04 -2.714598e-01 7.921609e-02 -3.800013e-01 -4.798876e-04 -3.337978e-01 -2.493510e-01 2.412025e-02 -2.163686e-01 -1.747650e-01 -4.692989e-01 -6.068467e-01 -4.614539e-03
<VARIANCE> 39
 2.546371e+01 2.124214e+01 2.262128e+01 1.341775e+01 3.079697e+01 1.590144e+01 9.927939e+00 1.244159e+01 1.937654e+01 3.390108e+01 4.287756e+01 5.098560e+01 3.548259e-03 5.508794e-01 5.553674e-01 6.730121e-01 7.447981e-01 2.077959e+00 1.152025e+00 1.182535e+00 8.968026e-01 1.575403e+00 1.144802e+00 2.180993e+00 1.875241e+00 7.102775e-05 1.044602e-01 8.010338e-02 1.890181e-01 1.727506e-01 3.552781e-01 1.810716e-01 2.326545e-01 2.611374e-01 1.554665e-01 4.376968e-01 3.578502e-01 3.663613e-01 1.504635e-05
<GCONST> 6.516120e+01
<MIXTURE> 7 9.288850e-02
<MEAN> 39
 -1.127298e+00 1.299950e+01 -5.644893e+00 -2.364565e+00 -5.507306e+00 -7.356048e+00 -2.545723e+00 -1.142762e+00 -3.391839e+00 8.709639e-01 -3.049250e+00 1.353450e+00 9.034560e-01 -1.927809e-01 -4.410966e-01 3.667068e-01 -7.093066e-01 8.547280e-01 -5.869333e-01 6.662872e-01 -4.359495e-02 8.752610e-01 -2.979547e-01 6.993539e-01 -8.045712e-01 -1.930499e-03 9.273137e-02 -2.807054e-01 3.706849e-01 -3.179589e-01 3.090225e-01 -5.695096e-02 -1.033094e-01 -2.829577e-02 -8.872908e-02 -1.709079e-01 4.096173e-02 -2.110880e-01 -4.485901e-03
<VARIANCE> 39
 1.117655e+01 2.059998e+01 1.459778e+01 2.400432e+01 1.823689e+01 2.246166e+01 1.770832e+01 2.921450e+01 2.325596e+01 2.333418e+01 3.335102e+01 6.850150e+01 3.962019e-03 2.043855e-01 3.980210e-01 6.497825e-01 4.803511e-01 9.038801e-01 1.107433e+00 1.866395e+00 1.309578e+00 1.381569e+00 1.057947e+00 1.031393e+00 9.093611e-01 3.754082e-05 5.104712e-02 6.123221e-02 1.614870e-01 2.254533e-01 2.361483e-01 1.951869e-01 2.348775e-01 2.061743e-01 2.952014e-01 2.818025e-01 2.208939e-01 2.633536e-01 1.435298e-05
<GCONST> 5.941710e+01
<MIXTURE> 8 4.648842e-02
<MEAN> 39
 -1.701652e+00 1.639516e+01 -5.672671e+00 1.134789e+00 -5.612848e+00 -5.502607e+00 9.498763e-02 -2.140418e+00 3.665472e-01 -3.104535e+00 -3.397922e+00 4.008300e+00 8.817804e-01 -7.645820e-01 -8.657057e-01 -2.857666e-01 -1.810163e+00 1.405407e-01 -1.335935e+00 2.381426e-01 -7.660109e-01 -1.620525e-01 -6.416597e-01 -1.582838e-01 -9.929471e-01 -1.447837e-03 -1.895769e-02 -5.848274e-01 2.452051e-01 -7.886776e-01 1.496873e-01 -3.682475e-01 -1.957583e-01 2.809941e-02 -3.089524e-01 -2.600565e-02 -1.367720e-01 -3.739917e-01 -3.291709e-03
<VARIANCE> 39
 1.319485e+01 3.163635e+01 1.365222e+01 1.928168e+01 1.093031e+01 2.310589e+01 1.014884e+01 2.560471e+01 1.682489e+01 2.145484e+01 2.689185e+01 4.604560e+01 5.908417e-03 1.529074e-01 2.875305e-01 3.724195e-01 4.808661e-01 1.213718e+00 1.095559e+00 1.220212e+00 1.071983e+00 1.115643e+00 8.756762e-01 1.135205e+00 9.557172e-01 3.754082e-05 5.482402e-02 8.335979e-02 1.648718e-01 1.502769e-01 3.159098e-01 2.019094e-01 2.869661e-01 3.045411e-01 1.863705e-01 1.850156e-01 2.592745e-01 2.673133e-01 6.651463e-06
<GCONST> 5.559953e+01
<MIXTURE> 9 7.015867e-02
<MEAN> 39
 3.190871e+00 1.143686e+01 -2.022649e+00 -5.278817e-02 -2.104968e+00 -2.881220e+00 -3.926389e+00 4.026231e-01 3.231295e-01 2.432516e+00 2.325151e-01 -2.498465e+00 7.918435e-01 7.473959e-01 -2.019571e-01 -1.032709e+00 2.813648e-01 5.645987e-01 -4.240519e-01 -1.448249e-01 -2.662157e-02 7.892955e-01 7.621133e-01 -7.679443e-01 -1.238459e-01 1.811569e-05 4.225756e-02 1.322892e-01 -2.867782e-01 1.623874e-02 -6.482115e-02 -2.942297e-01 7.155508e-02 2.560583e-02 8.761607e-02 -3.430306e-01 -1.621239e-01 5.386169e-02 1.474781e-03
<VARIANCE> 39
 1.171931e+01 3.832528e+01 1.245183e+01 8.421713e+00 1.793950e+01 2.647072e+01 1.533114e+01 1.276135e+01 9.377058e+00 4.278622e+01 3.528039e+01 1.313742e+01 1.398590e-02 5.686103e-01 8.619348e-01 1.103770e+00 1.307709e+00 2.265539e+00 2.705106e+00 1.288919e+00 2.021898e+00 2.223547e+00 1.403547e+00 1.645308e+00 1.735962e+00 8.173868e-05 7.030908e-02 8.981153e-02 9.362079e-02 1.459846e-01 2.871279e-01 2.651271e-01 1.923977e-01 3.227433e-01 1.586148e-01 2.405907e-01 2.549318e-01 2.782042e-01 6.519664e-06
<GCONST> 6.437555e+01
<MIXTURE> 10 6.183438e-02
<MEAN> 39
 4.883375e-01 1.723260e+01 -5.149494e-01 -2.769955e+00 -8.652509e+00 -7.937164e-01 -1.324297e+01 3.090146e+00 1.426880e+00 -5.397112e+00 5.214758e+00 -6.861412e+00 8.483656e-01 -1.158516e-01 -2.535507e-01 1.923370e-01 -1.047077e+00 7.331729e-01 -4.850842e-01 2.027335e-01 -2.216136e-01 1.250674e+00 -3.021301e-01 2.380181e-01 1.253493e-01 2.426752e-04 -8.916296e-03 -2.981468e-01 2.728843e-01 -3.114841e-01 4.151813e-01 -2.701062e-01 3.276453e-01 -7.915830e-02 7.157937e-02 2.711234e-01 -3.226704e-01 3.557356e-01 -2.548856e-03
<VARIANCE> 39
 2.126100e+01 1.399280e+01 2.505466e+01 1.634952e+01 1.078241e+01 1.992364e+01 1.150476e+01 2.389953e+01 3.421053e+01 1.647276e+01 8.495541e+00 1.822392e+01 4.897256e-03 4.629676e-01 3.014606e-01 3.190443e-01 1.154428e+00 7.536038e-01 8.409904e-01 1.125643e+00 9.514241e-01 1.666669e+00 1.300418e+00 1.372964e+00 3.765414e-01 9.212377e-05 6.673873e-02 8.013085e-02 1.168379e-01 1.302898e-01 1.397889e-01 1.930485e-01 2.811677e-01 2.334907e-01 2.413776e-01 1.556917e-01 1.021274e-01 1.298267e-01 2.319853e-05
<GCONST> 5.386994e+01
<MIXTURE> 11 1.047710e-01
<MEAN> 39
 -3.207291e+00 1.647811e+01 4.810849e-01 -4.445237e+00 -3.561500e+00 -6.477769e+00 -8.657704e+00 -3.671790e+00 1.651194e+00 -6.387189e+00 6.670002e+00 -3.987508e+00 9.010421e-01 -1.248112e-01 -6.326238e-01 2.711342e-01 -1.142934e+00 3.982551e-01 -2.372694e-01 4.219665e-01 1.861408e-01 1.733830e-01 5.560259e-01 -5.182960e-01 6.135233e-01 3.688392e-03 1.089696e-01 -3.231417e-01 2.442700e-01 -2.923105e-01 3.955246e-02 1.508202e-01 7.468615e-02 3.296416e-01 -3.708588e-02 1.615690e-01 -3.253954e-01 1.815426e-01 -3.275864e-03
<VARIANCE> 39
 8.386525e+00 2.642619e+01 1.317081e+01 1.193900e+01 1.346491e+01 1.327938e+01 1.652039e+01 2.207315e+01 2.282385e+01 2.872867e+01 1.652105e+01 8.878984e+00 3.909000e-03 7.534661e-02 2.053113e-01 2.877171e-01 3.745666e-01 4.569266e-01 4.360929e-01 5.131268e-01 6.284929e-01 5.474743e-01 8.525996e-01 8.240575e-01 7.288459e-01 5.477754e-05 1.730416e-02 6.062211e-02 8.691661e-02 1.055254e-01 7.156860e-02 6.919292e-02 1.498145e-01 1.333009e-01 8.814897e-02 1.103419e-01 8.773501e-02 8.734942e-02 8.617770e-06
<GCONST> 3.698660e+01
<MIXTURE> 12 1.252038e-01
<MEAN> 39
 -9.346170e-01 1.246218e+01 -7.182835e+00 -2.882495e+00 -8.941425e+00 -1.076509e+01 -6.108097e+00 -4.533995e+00 -5.470456e+00 -2.438241e+00 -7.800713e+00 -7.591712e-03 8.858631e-01 -5.200157e-01 -4.790761e-01 -4.013397e-01 -1.163591e+00 -2.946729e-01 -9.095863e-01 -4.830001e-02 -7.986269e-01 -1.482944e-01 -8.490289e-01 -2.564282e-02 -8.377867e-01 -3.057461e-03 1.582596e-01 6.777742e-02 4.717568e-01 -3.186143e-04 5.482147e-01 2.922065e-01 4.600798e-01 4.534244e-01 3.543894e-01 1.650366e-01 5.294768e-01 7.237666e-02 -3.273716e-03
<VARIANCE> 39
 8.400981e+00 2.753917e+01 1.403854e+01 1.830763e+01 1.226261e+01 2.109135e+01 1.833638e+01 3.142601e+01 2.027654e+01 1.975420e+01 2.575404e+01 3.856517e+01 4.482717e-03 2.770604e-01 4.449946e-01 5.705609e-01 7.179083e-01 6.874484e-01 1.374354e+00 1.077085e+00 1.013493e+00 1.065717e+00 1.127449e+00 8.670543e-01 9.444878e-01 6.227774e-05 4.475166e-02 8.240245e-02 1.333994e-01 1.622365e-01 1.142243e-01 1.475679e-01 1.996981e-01 1.468364e-01 1.585912e-01 2.285613e-01 1.681025e-01 2.163172e-01 7.431627e-06
<GCONST> 5.392390e+01
<STATE> 8
<NUMMIXES> 12
<MIXTURE> 1 5.378413e-03
<MEAN> 39
 -8.439594e+00 3.536557e+00 -8.775901e+00 -1.448552e-02 -6.658000e+00 -7.208673e+00 -8.208222e+00 -8.853161e+00 8.007686e+00 7.115858e+00 1.832334e+01 2.184668e+01 9.890161e-01 1.273873e+00 -5.398049e-02 -1.230023e-01 7.290853e-01 7.259738e-01 7.780349e-01 -7.587355e-01 -5.231454e-01 1.917799e+00 2.857078e+00 1.131237e-01 -2.112141e+00 1.721783e-03 4.568830e-01 5.531371e-01 4.734765e-01 4.080011e-01 6.495250e-01 7.149630e-01 3.435135e-01 6.831602e-01 2.151761e-01 -9.027907e-02 -3.231528e-01 1.373684e-01 6.598472e-04
<VARIANCE> 39
 3.368346e+00 3.916980e+00 1.660222e+00 3.895751e+00 2.983215e+00 5.495394e+00 3.448501e+00 6.870634e+00 7.145780e+00 1.443235e+01 2.223931e+00 1.881914e+01 8.178990e-04 6.235696e-01 8.541776e-01 7.785010e-01 8.544866e-01 1.629614e+00 1.807044e+00 3.842359e-01 1.071702e+00 3.135720e-01 3.808484e-01 8.434807e-01 2.305062e-01 3.754082e-05 3.958226e-02 1.926083e-02 2.560000e-02 5.847441e-02 2.662265e-02 8.414392e-02 2.351734e-02 5.361186e-02 1.409776e-01 2.810576e-01 4.796448e-02 2.202483e-01 3.730629e-06
<GCONST> 2.181145e+01
<MIXTURE> 2 2.835952e-02
<MEAN> 39
 7.201370e-01 1.184071e+01 -5.186737e+00 -2.915284e+00 -7.348693e+00 -1.062320e+00 -6.426322e+00 -6.198010e+00 7.720584e-02 -1.508376e-01 -5.294595e-01 -4.857648e+00 7.607320e-01 7.415253e-01 2.533695e-01 -3.690706e-01 -1.473794e-02 9.695863e-01 8.454943e-01 2.603034e-01 2.153151e-02 8.474613e-01 6.892191e-01 1.501164e+00 9.987629e-01 -7.386952e-04 2.748360e-01 -1.477418e-01 1.811677e-01 3.052854e-01 4.770012e-01 -6.368319e-02 1.615432e-01 7.146875e-01 4.472081e-01 -6.445269e-02 7.353713e-02 2.621546e-01 -3.794571e-04
<VARIANCE> 39
 1.260115e+01 6.043587e+01 2.437799e+01 2.111796e+01 1.433493e+01 1.928897e+01 4.603483e+01 8.333491e+00 1.340999e+01 1.797962e+01 3.329000e+01 2.547522e+01 2.373895e-02 6.626284e-01 1.680267e-01 9.597462e-01 1.223536e+00 6.209260e-01 3.275255e+00 1.596708e+00 2.427384e+00 5.838685e-01 3.752518e+00 2.900395e+00 8.203014e-01 1.807937e-04 9.052878e-02 1.181059e-01 1.022716e-01 4.834335e-02 1.600651e-01 2.193059e-01 2.689161e-01 1.460796e-01 1.676839e-01 2.587849e-01 4.599062e-01 1.041192e-01 3.533592e-05
<GCONST> 6.481768e+01
<MIXTURE> 3 2.328750e-02
<MEAN> 39
 1.352575e+00 1.519644e+01 -6.944322e+00 5.245034e-01 -9.815736e+00 -1.074857e+01 -2.679301e+00 -5.321483e+00 -1.013235e+00 -8.031222e+00 -6.967354e+00 3.533510e+00 7.863045e-01 1.955209e-01 -5.563541e-02 2.750582e-01 -3.657762e-01 5.692469e-01 6.169056e-01 8.434485e-01 5.605614e-01 2.905509e-01 3.551447e-01 1.791186e+00 8.972284e-01 -1.224958e-02 1.865972e-01 4.767852e-02 2.142617e-01 -4.037745e-02 5.069423e-01 1.534106e-01 1.691393e-01 4.052469e-01 3.341473e-01 6.489369e-01 4.498717e-01 1.837501e-02 -1.484934e-03
<VARIANCE> 39
 1.336767e+01 1.865965e+01 1.466595e+01 1.079261e+01 9.908082e+00 1.935865e+01 1.841468e+01 1.411088e+01 1.095082e+01 1.761912e+01 5.210064e+01 2.409998e+01 6.018737e-03 1.666438e+00 6.667113e-01 7.677708e-01 1.769061e+00 1.445171e+00 2.023366e+00 1.350745e+00 1.087849e+00 9.996424e-01 3.203577e+00 3.307756e+00 2.281737e+00 8.131122e-05 1.410338e-01 5.895484e-02 9.114077e-02 1.747171e-01 1.792525e-01 4.088652e-01 3.819424e-01 3.675002e-01 2.684229e-01 4.942889e-01 7.293564e-01 4.575195e-01 7.431397e-06
<GCONST> 6.756585e+01
<MIXTURE> 4 1.010078e-01
<MEAN> 39
 -2.668606e+00 1.579878e+01 4.057008e-01 -5.188330e+00 -2.661244e+00 -7.415205e+00 -9.329103e+00 -1.550607e+00 1.641108e+00 -4.293274e+00 5.149502e+00 -2.805793e+00 8.896484e-01 -1.353337e-01 -1.123958e+00 8.035012e-01 -1.985940e+00 7.898872e-01 -4.277531e-01 6.260120e-01 5.376318e-01 3.535576e-01 9.731447e-01 -8.726637e-01 8.919590e-01 -3.047551e-04 2.208025e-01 -4.898953e-01 3.510410e-01 -1.755527e-01 -1.462115e-01 5.003704e-01 1.729678e-01 4.256215e-01 -1.203466e-01 1.399555e-01 -3.746544e-01 4.685279e-02 -4.966423e-03
<VARIANCE> 39
 9.854815e+00 2.101626e+01 1.426241e+01 1.316818e+01 1.492889e+01 1.721963e+01 1.788014e+01 1.844991e+01 2.661997e+01 2.431636e+01 2.032404e+01 1.407759e+01 5.034093e-03 2.659245e-01 4.274900e-01 7.002255e-01 6.569873e-01 6.681267e-01 1.270915e+00 1.382889e+00 1.248983e+00 1.023033e+00 9.641637e-01 1.139928e+00 5.344513e-01 1.259607e-04 7.162180e-02 1.067231e-01 1.280791e-01 2.312384e-01 1.265278e-01 1.231081e-01 1.796262e-01 1.380827e-01 2.223186e-01 1.600872e-01 2.391920e-01 1.833955e-01 2.512437e-05
<GCONST> 5.506900e+01
<MIXTURE> 5 1.678508e-01
<MEAN> 39
 -2.109536e+00 1.116634e+01 -5.835962e+00 -4.602756e+00 -7.533251e+00 -1.044725e+01 -5.318438e+00 -3.801402e+00 -5.310668e+00 -2.222991e+00 -6.179818e+00 -2.218628e+00 8.939722e-01 5.931985e-02 -3.770406e-01 4.423260e-01 -7.311793e-01 7.509600e-01 -1.783772e-01 3.237810e-01 -1.727271e-02 2.727681e-01 -1.384006e-01 7.674767e-01 -6.039957e-01 -1.066073e-02 3.619741e-01 5.211502e-02 5.872672e-01 2.801427e-01 5.946338e-01 5.922179e-01 3.052399e-01 3.871174e-01 2.600215e-01 2.142291e-01 4.310436e-01 2.382197e-01 -7.716474e-03
<VARIANCE> 39
 1.380013e+01 2.534445e+01 1.368925e+01 1.731343e+01 1.590082e+01 2.414691e+01 2.030870e+01 3.249020e+01 2.127258e+01 2.343366e+01 2.272840e+01 4.313290e+01 4.328787e-03 2.749188e-01 4.352135e-01 9.109777e-01 9.642264e-01 9.240313e-01 1.156395e+00 1.881265e+00 1.105043e+00 1.849474e+00 1.277719e+00 1.249125e+00 1.446818e+00 1.289979e-04 6.667868e-02 9.156920e-02 1.902909e-01 1.794222e-01 2.051397e-01 2.142370e-01 3.019080e-01 3.982860e-01 3.342853e-01 3.368329e-01 2.345111e-01 2.785762e-01 2.382575e-05
<GCONST> 6.486774e+01
